version: 100
cost-factor: 1
maxid: 45747
xsize: 6

Code
Confirm
ConfirmFalse
ConfirmTrue
Delivery
Name
O
Other
UserId

U00:%x[-2,0]
U01:%x[-1,0]
U02:%x[0,0]
U03:%x[1,0]
U04:%x[2,0]
U05:%x[-2,0]/%x[-1,0]
U06:%x[-1,0]/%x[0,0]
U07:%x[0,0]/%x[1,0]
U08:%x[1,0]/%x[2,0]
U10:%x[-2,1]
U11:%x[-1,1]
U12:%x[0,1]
U13:%x[1,1]
U14:%x[2,1]
U15:%x[-2,1]/%x[-1,1]
U16:%x[-1,1]/%x[0,1]
U17:%x[0,1]/%x[1,1]
U18:%x[1,1]/%x[2,1]
U20:%x[-2,0]/%x[-2,1]
U21:%x[-1,0]/%x[-1,1]
U22:%x[0,0]/%x[0,1]
U23:%x[1,0]/%x[1,1]
U24:%x[2,0]/%x[2,1]
U30:%x[-2,2]
U31:%x[-1,2]
U32:%x[0,2]
U33:%x[1,2]
U34:%x[2,2]
U35:%x[-2,2]/%x[-1,2]
U36:%x[-1,2]/%x[0,2]
U37:%x[0,2]/%x[1,2]
U38:%x[1,2]/%x[2,2]
U40:%x[-2,0]/%x[-2,2]
U41:%x[-1,0]/%x[-1,2]
U42:%x[0,0]/%x[0,2]
U43:%x[1,0]/%x[1,2]
U44:%x[2,0]/%x[2,2]
U50:%x[0,1]/%x[0,2]
U60:%x[-2,3]
U61:%x[-1,3]
U62:%x[0,3]
U63:%x[1,3]
U64:%x[2,3]
U65:%x[-2,3]/%x[-1,3]
U66:%x[-1,3]/%x[0,3]
U67:%x[0,3]/%x[1,3]
U68:%x[1,3]/%x[2,3]
U70:%x[-2,0]/%x[-2,3]
U71:%x[-1,0]/%x[-1,3]
U72:%x[0,0]/%x[0,3]
U73:%x[1,0]/%x[1,3]
U74:%x[2,0]/%x[2,3]
U90:%x[-2,4]
U91:%x[-1,4]
U92:%x[0,4]
U93:%x[1,4]
U94:%x[2,4]
U95:%x[-2,4]/%x[-1,4]
U96:%x[-1,4]/%x[0,4]
U97:%x[0,4]/%x[1,4]
U98:%x[1,4]/%x[2,4]
U110:%x[-2,0]/%x[-2,4]
U111:%x[-1,0]/%x[-1,4]
U112:%x[0,0]/%x[0,4]
U113:%x[1,0]/%x[1,4]
U114:%x[2,0]/%x[2,4]
U120:%x[-2,5]
U121:%x[-1,5]
U123:%x[0,5]
U124:%x[1,5]
U125:%x[2,5]
U126:%x[-2,5]/%x[-1,5]
U127:%x[-1,5]/%x[0,5]
U128:%x[0,5]/%x[1,5]
U129:%x[1,5]/%x[2,5]
U130:%x[-2,0]/%x[-2,5]
U131:%x[-1,0]/%x[-1,5]
U132:%x[0,0]/%x[0,5]
U133:%x[1,0]/%x[1,5]
U134:%x[2,0]/%x[2,5]
B

3069 B
720 U00:_B-1
0 U00:_B-2
24660 U00:ab
22599 U00:abcd
45648 U00:able
27351 U00:about
42237 U00:access
23436 U00:account
42768 U00:and
41724 U00:be
28503 U00:beck
14751 U00:but
34020 U00:call
10323 U00:can't
24849 U00:cd
29277 U00:chaan
27810 U00:check
39150 U00:code
43398 U00:could
6462 U00:daniel
23958 U00:david
29403 U00:deson
32058 U00:do
11880 U00:don't
8100 U00:duy
22788 U00:efghj
21375 U00:eli
33930 U00:email
28197 U00:for
39699 U00:forget
40392 U00:forgets
40860 U00:forgot
12627 U00:happened
44262 U00:have
44856 U00:having
3591 U00:hello
5625 U00:help
6615 U00:hernandez
1206 U00:i
10791 U00:i'm
15669 U00:id
43065 U00:in
4509 U00:is
32247 U00:it
35865 U00:it's
16281 U00:jam
26136 U00:jamj
28053 U00:jamjohnson
16866 U00:joh
28755 U00:johnson
12186 U00:known
30105 U00:lee
29970 U00:linda
41850 U00:locked
36468 U00:logged
10449 U00:login
45522 U00:longer
7272 U00:lopez
9090 U00:lost
14364 U00:many
5769 U00:me
10926 U00:michael
4815 U00:micheal
3897 U00:my
4203 U00:name
9702 U00:need
7911 U00:nguyen
31032 U00:no
26964 U00:not
26325 U00:ohn
30870 U00:ok
30951 U00:okay
9360 U00:password
25434 U00:paul
33705 U00:phone
5373 U00:please
40104 U00:remember
2484 U00:reset
18666 U00:robert
28629 U00:ronaldo
41391 U00:seem
35379 U00:send
42993 U00:sign
5121 U00:smith
33849 U00:sms
36810 U00:still
27216 U00:sure
8226 U00:thanh
7146 U00:thomas
14616 U00:times
1998 U00:to
14112 U00:today
13158 U00:tried
44388 U00:trouble
8604 U00:trung
13806 U00:ttx
31644 U00:unlock
34506 U00:use
15453 U00:user
35100 U00:using
1602 U00:want
12438 U00:what
12753 U00:with
30789 U00:yes
43524 U00:you
9837 U00:your
37224 U01:1
38295 U01:1012
38727 U01:11212112
37404 U01:12
37575 U01:123
37719 U01:1234
37863 U01:12345
38439 U01:1544
38583 U01:154422
39285 U01:1789234081731234897
38151 U01:21341
38007 U01:54321
9 U01:_B-1
24462 U01:ab
22401 U01:abcd
17406 U01:abcdef
17064 U01:abcdefghjklmn
17550 U01:abcdefghjoqei
45531 U01:able
27225 U01:about
42156 U01:access
23364 U01:account
42624 U01:and
20457 U01:anthony.thomas
41589 U01:be
23967 U01:beck
18675 U01:brown
14625 U01:but
33714 U01:call
10188 U01:can't
37080 U01:cannot
24669 U01:cd
29142 U01:chaan
20313 U01:chaandeson
27657 U01:check
19305 U01:chrmiller
39006 U01:code
43263 U01:could
19737 U01:danhernandez
6291 U01:daniel
23823 U01:david
17262 U01:davidbeck
18873 U01:davidjones
29286 U01:deson
31977 U01:do
11628 U01:don't
7920 U01:duy
24858 U01:ef
22608 U01:efghj
21240 U01:eli
21033 U01:elijackson
33363 U01:email
28062 U01:for
39618 U01:forget
40311 U01:forgets
40788 U01:forgot
12447 U01:happened
44127 U01:have
44775 U01:having
3339 U01:hello
5382 U01:help
6471 U01:hernandez
729 U01:i
10647 U01:i'm
15462 U01:id
36477 U01:in
4212 U01:is
31653 U01:it
35721 U01:it's
33075 U01:its
21384 U01:jackson
16146 U01:jam
25938 U01:jamj
15678 U01:jamjohnson
20169 U01:jenwilson
16731 U01:joh
16290 U01:johnson
18126 U01:johwilliams
19449 U01:jpshep.martinez
11889 U01:known
29979 U01:lee
29835 U01:linda
20745 U01:linda.lee
41733 U01:locked
36333 U01:logged
10332 U01:login
45387 U01:longer
7155 U01:lopez
8955 U01:lost
14121 U01:many
20889 U01:mark.moore
19161 U01:maryroddiguez
20025 U01:matgonzalez
5634 U01:me
10800 U01:michael
4518 U01:micheal
17982 U01:micheal.smith
3600 U01:my
3906 U01:name
9558 U01:need
7713 U01:nguyen
30699 U01:no
26766 U01:not
36000 U01:now
26145 U01:ohn
30411 U01:ok
30555 U01:okay
22797 U01:oqei
2493 U01:password
20601 U01:patriciataylor
25299 U01:paul
17838 U01:paul.pogba
17694 U01:paulpogba
33570 U01:phone
5130 U01:please
25443 U01:pogba
40032 U01:remember
2007 U01:reset
19593 U01:richarddavis
18513 U01:robert
18288 U01:robertbrown
28512 U01:ronaldo
41193 U01:seem
35298 U01:send
42912 U01:sign
4824 U01:smith
33219 U01:sms
26334 U01:son
36738 U01:still
26973 U01:sure
8109 U01:thanh
32562 U01:this
7011 U01:thomas
19881 U01:thomas.lopez
14373 U01:times
1611 U01:to
13815 U01:today
13014 U01:tried
44271 U01:trouble
8532 U01:trung
13554 U01:ttx
31509 U01:unlock
34434 U01:use
15228 U01:user
35028 U01:using
1215 U01:want
12195 U01:what
19017 U01:williamgarcia
16875 U01:williams
12636 U01:with
30267 U01:yes
43407 U01:you
9711 U01:your
2502 U02:.
37152 U02:1
38223 U02:1012
38655 U02:11212112
37296 U02:12
37503 U02:123
37647 U02:1234
37791 U02:12345
38367 U02:1544
38511 U02:154422
39159 U02:1789234081731234897
38079 U02:21341
37935 U02:54321
24273 U02:ab
22212 U02:abcd
17334 U02:abcdef
16992 U02:abcdefghjklmn
17478 U02:abcdefghjoqei
45396 U02:able
26982 U02:about
42066 U02:access
23292 U02:account
42489 U02:and
20385 U02:anthony.thomas
41400 U02:be
23832 U02:beck
18522 U02:brown
14382 U02:but
33579 U02:call
10053 U02:can't
37008 U02:cannot
24471 U02:cd
29007 U02:chaan
20241 U02:chaandeson
27567 U02:check
19233 U02:chrmiller
38871 U02:code
43128 U02:could
19665 U02:danhernandez
6111 U02:daniel
23688 U02:david
17190 U02:davidbeck
18801 U02:davidjones
29151 U02:deson
31896 U02:do
11439 U02:don't
7722 U02:duy
24678 U02:ef
22410 U02:efghj
21105 U02:eli
20961 U02:elijackson
33291 U02:email
27963 U02:for
39546 U02:forget
40239 U02:forgets
40707 U02:forgot
12204 U02:happened
43992 U02:have
44694 U02:having
3150 U02:hello
5139 U02:help
6300 U02:hernandez
18 U02:i
10512 U02:i'm
15237 U02:id
36342 U02:in
3915 U02:is
31518 U02:it
35532 U02:it's
33003 U02:its
21249 U02:jackson
16011 U02:jam
25749 U02:jamj
15471 U02:jamjohnson
20097 U02:jenwilson
16596 U02:joh
16155 U02:johnson
18054 U02:johwilliams
19377 U02:jpshep.martinez
11637 U02:known
29844 U02:lee
29700 U02:linda
20673 U02:linda.lee
41598 U02:locked
36198 U02:logged
10197 U02:login
45243 U02:longer
7020 U02:lopez
8874 U02:lost
13824 U02:many
20817 U02:mark.moore
19089 U02:maryroddiguez
19953 U02:matgonzalez
5391 U02:me
10656 U02:michael
4221 U02:micheal
17910 U02:micheal.smith
3348 U02:my
3609 U02:name
9369 U02:need
7524 U02:nguyen
30627 U02:no
26577 U02:not
35874 U02:now
25947 U02:ohn
30339 U02:ok
30483 U02:okay
22617 U02:oqei
2016 U02:password
20529 U02:patriciataylor
25164 U02:paul
17766 U02:paul.pogba
17622 U02:paulpogba
33435 U02:phone
4833 U02:please
25308 U02:pogba
39960 U02:remember
1620 U02:reset
19521 U02:richarddavis
18360 U02:robert
18216 U02:robertbrown
28431 U02:ronaldo
41058 U02:seem
35217 U02:send
42777 U02:sign
4527 U02:smith
33147 U02:sms
26154 U02:son
36666 U02:still
26775 U02:sure
7929 U02:thanh
32481 U02:this
6876 U02:thomas
19809 U02:thomas.lopez
14130 U02:times
1224 U02:to
13563 U02:today
12933 U02:tried
44136 U02:trouble
8451 U02:trung
13356 U02:ttx
31374 U02:unlock
34299 U02:use
15021 U02:user
34956 U02:using
738 U02:want
11898 U02:what
18945 U02:williamgarcia
16740 U02:williams
12456 U02:with
30195 U02:yes
43272 U02:you
9567 U02:your
2025 U03:.
39015 U03:1789234081731234897
2511 U03:_B+1
24147 U03:ab
22086 U03:abcd
21933 U03:abcdef
45252 U03:able
26784 U03:about
41985 U03:access
23220 U03:account
42417 U03:and
41202 U03:be
23697 U03:beck
18369 U03:brown
14139 U03:but
33444 U03:call
9927 U03:can't
36936 U03:cannot
24282 U03:cd
28881 U03:chaan
27486 U03:check
38799 U03:code
5958 U03:daniel
23562 U03:david
21780 U03:davidbeck
29016 U03:deson
31770 U03:do
11313 U03:don't
7533 U03:duy
24480 U03:ef
22221 U03:efghj
34632 U03:email
27819 U03:for
39474 U03:forget
40167 U03:forgets
40626 U03:forgot
11907 U03:happened
43866 U03:have
44613 U03:having
4842 U03:help
6120 U03:hernandez
8667 U03:i
15030 U03:id
36207 U03:in
3618 U03:is
31383 U03:it
32931 U03:its
21114 U03:jackson
15885 U03:jam
25623 U03:jamj
15246 U03:jamjohnson
16470 U03:joh
16020 U03:johnson
11448 U03:known
29709 U03:lee
41409 U03:locked
36072 U03:logged
10062 U03:login
45108 U03:longer
6885 U03:lopez
8793 U03:lost
13572 U03:many
5148 U03:me
10521 U03:michael
3924 U03:micheal
3159 U03:my
3357 U03:name
9225 U03:need
7398 U03:nguyen
44982 U03:no
26451 U03:not
35730 U03:now
25758 U03:ohn
35541 U03:ok
22419 U03:oqei
1629 U03:password
25038 U03:paul
23130 U03:paul.pogba
22977 U03:paulpogba
34785 U03:phone
4536 U03:please
25173 U03:pogba
39888 U03:remember
1233 U03:reset
28350 U03:ronaldo
40986 U03:seem
42633 U03:sign
4230 U03:smith
34308 U03:sms
25956 U03:son
36594 U03:still
26586 U03:sure
7731 U03:thanh
32391 U03:this
6750 U03:thomas
13833 U03:times
747 U03:to
13365 U03:today
12861 U03:tried
44001 U03:trouble
8370 U03:trung
13167 U03:ttx
31239 U03:unlock
34173 U03:use
14895 U03:user
27 U03:want
11646 U03:what
16605 U03:williams
12213 U03:with
43137 U03:you
9378 U03:your
1638 U04:.
38880 U04:1789234081731234897
2034 U04:_B+1
2520 U04:_B+2
24084 U04:ab
22023 U04:abcd
21870 U04:abcdef
45117 U04:able
26595 U04:about
43605 U04:access
26991 U04:account
42354 U04:and
41067 U04:be
23571 U04:beck
13842 U04:but
34794 U04:call
14391 U04:can't
36873 U04:cannot
24156 U04:cd
28818 U04:chaan
27360 U04:check
5877 U04:daniel
23499 U04:david
21717 U04:davidbeck
28890 U04:deson
32634 U04:do
32724 U04:don't
7407 U04:duy
24291 U04:ef
22095 U04:efghj
34569 U04:email
27666 U04:for
40554 U04:forgot
11655 U04:happened
44541 U04:having
4545 U04:help
5967 U04:hernandez
8964 U04:i
14904 U04:id
36081 U04:in
3366 U04:is
31248 U04:it
32868 U04:its
15822 U04:jam
25560 U04:jamj
15039 U04:jamjohnson
16407 U04:joh
15894 U04:johnson
11322 U04:known
41211 U04:locked
9936 U04:login
44991 U04:longer
6759 U04:lopez
8676 U04:lost
13374 U04:many
4851 U04:me
3627 U04:micheal
5400 U04:my
3168 U04:name
9099 U04:need
7335 U04:nguyen
31779 U04:not
35550 U04:now
25632 U04:ohn
22230 U04:oqei
1242 U04:password
24975 U04:paul
23067 U04:paul.pogba
22914 U04:paulpogba
34722 U04:phone
4239 U04:please
25047 U04:pogba
39825 U04:remember
756 U04:reset
28278 U04:ronaldo
40923 U04:seem
42498 U04:sign
3933 U04:smith
34182 U04:sms
25767 U04:son
26460 U04:sure
7542 U04:thanh
32310 U04:this
6687 U04:thomas
13581 U04:times
36 U04:to
13176 U04:today
43875 U04:trouble
8298 U04:trung
13023 U04:ttx
31167 U04:unlock
34110 U04:use
14832 U04:user
31095 U04:want
11457 U04:what
16479 U04:williams
11916 U04:with
9234 U04:your
37233 U05:_B-1/1
38304 U05:_B-1/1012
38736 U05:_B-1/11212112
37413 U05:_B-1/12
37584 U05:_B-1/123
37728 U05:_B-1/1234
37872 U05:_B-1/12345
38448 U05:_B-1/1544
38592 U05:_B-1/154422
38160 U05:_B-1/21341
38016 U05:_B-1/54321
17415 U05:_B-1/abcdef
17073 U05:_B-1/abcdefghjklmn
17559 U05:_B-1/abcdefghjoqei
20466 U05:_B-1/anthony.thomas
42075 U05:_B-1/can't
29664 U05:_B-1/chaan
20322 U05:_B-1/chaandeson
19314 U05:_B-1/chrmiller
43281 U05:_B-1/could
19746 U05:_B-1/danhernandez
29565 U05:_B-1/david
17271 U05:_B-1/davidbeck
18882 U05:_B-1/davidjones
32202 U05:_B-1/do
32400 U05:_B-1/don't
21258 U05:_B-1/eli
21042 U05:_B-1/elijackson
33372 U05:_B-1/email
3375 U05:_B-1/hello
9918 U05:_B-1/help
765 U05:_B-1/i
10665 U05:_B-1/i'm
39375 U05:_B-1/it
35739 U05:_B-1/it's
17145 U05:_B-1/jam
17172 U05:_B-1/jamjohnson
20178 U05:_B-1/jenwilson
18207 U05:_B-1/joh
18135 U05:_B-1/johwilliams
19458 U05:_B-1/jpshep.martinez
29853 U05:_B-1/linda
20754 U05:_B-1/linda.lee
20898 U05:_B-1/mark.moore
19170 U05:_B-1/maryroddiguez
20034 U05:_B-1/matgonzalez
17991 U05:_B-1/micheal.smith
21519 U05:_B-1/my
30708 U05:_B-1/no
30420 U05:_B-1/ok
30564 U05:_B-1/okay
20610 U05:_B-1/patriciataylor
17847 U05:_B-1/paul.pogba
17703 U05:_B-1/paulpogba
33588 U05:_B-1/phone
32148 U05:_B-1/please
12852 U05:_B-1/reset
19602 U05:_B-1/richarddavis
18531 U05:_B-1/robert
18297 U05:_B-1/robertbrown
35307 U05:_B-1/send
33228 U05:_B-1/sms
19890 U05:_B-1/thomas.lopez
32166 U05:_B-1/unlock
35037 U05:_B-1/using
19026 U05:_B-1/williamgarcia
30276 U05:_B-1/yes
45 U05:_B-2/_B-1
24687 U05:ab/cd
22626 U05:abcd/efghj
45657 U05:able/access
27369 U05:about/my
42246 U05:access/to
29160 U05:account/chaan
28359 U05:account/david
44784 U05:account/having
42345 U05:account/help
44487 U05:account/i
23445 U05:account/is
28728 U05:account/jam
27972 U05:account/jamjohnson
43821 U05:account/my
45738 U05:account/need
40473 U05:account/password
27576 U05:account/please
41220 U05:account/seem
42786 U05:and/can't
41742 U05:be/locked
28521 U05:beck/ronaldo
14760 U05:but/i
34029 U05:call/please
42165 U05:can't/access
10341 U05:can't/login
42921 U05:can't/sign
24867 U05:cd/ef
29295 U05:chaan/deson
27828 U05:check/account
39168 U05:code/is
43416 U05:could/you
6480 U05:daniel/hernandez
23976 U05:david/beck
29412 U05:deson/for
29691 U05:deson/is
32229 U05:do/it
32067 U05:do/not
32571 U05:do/this
32490 U05:don't/do
11925 U05:don't/known
40041 U05:don't/remember
31257 U05:don't/want
8118 U05:duy/thanh
22806 U05:efghj/oqei
21393 U05:eli/jackson
33939 U05:email/please
28206 U05:for/me
39465 U05:for/my
39708 U05:forget/password
40401 U05:forgets/my
40869 U05:forgot/my
12645 U05:happened/with
44280 U05:have/trouble
44865 U05:having/trouble
8883 U05:hello/i
3636 U05:hello/my
43785 U05:hello/please
40716 U05:help/i
5643 U05:help/me
40509 U05:help/my
41949 U05:help/to
11295 U05:hernandez/help
6624 U05:hernandez/please
11097 U05:i'm/duy
10809 U05:i'm/michael
11151 U05:i'm/nguyen
45261 U05:i'm/no
26793 U05:i'm/not
10206 U05:i/can't
31986 U05:i/do
11664 U05:i/don't
39627 U05:i/forget
40320 U05:i/forgets
40797 U05:i/forgot
44145 U05:i/have
36351 U05:i/logged
8973 U05:i/lost
9576 U05:i/need
36747 U05:i/still
13032 U05:i/tried
1251 U05:i/want
21591 U05:id/is
16164 U05:id/jam
15687 U05:id/jamjohnson
16749 U05:id/joh
43074 U05:in/help
39294 U05:is/1789234081731234897
24489 U05:is/ab
22428 U05:is/abcd
22014 U05:is/abcdef
6309 U05:is/daniel
23841 U05:is/david
21861 U05:is/davidbeck
21654 U05:is/duy
21609 U05:is/jam
25965 U05:is/jamj
21708 U05:is/jamjohnson
4554 U05:is/micheal
29529 U05:is/my
7740 U05:is/nguyen
25317 U05:is/paul
23211 U05:is/paul.pogba
23058 U05:is/paulpogba
7029 U05:is/thomas
35883 U05:it's/ok
32256 U05:it/for
39393 U05:it/is
16299 U05:jam/johnson
26163 U05:jamj/ohn
28071 U05:jamjohnson/for
29502 U05:jamjohnson/is
16884 U05:joh/williams
28764 U05:johnson/for
29637 U05:johnson/is
12222 U05:known/what
30114 U05:lee/is
29988 U05:linda/lee
41859 U05:locked/help
36486 U05:logged/in
10458 U05:login/please
13383 U05:login/to
45540 U05:longer/able
7281 U05:lopez/please
9108 U05:lost/my
14400 U05:many/times
35487 U05:me/email
43677 U05:me/i
44622 U05:me/my
35523 U05:me/phone
5778 U05:me/reset
35451 U05:me/sms
11187 U05:michael/help
10935 U05:michael/smith
4860 U05:micheal/smith
23373 U05:my/account
39024 U05:my/code
3942 U05:my/name
5868 U05:my/password
21546 U05:my/user
4248 U05:name/is
44514 U05:need/help
9720 U05:need/your
7938 U05:nguyen/duy
8460 U05:nguyen/thanh
32805 U05:no/i
45405 U05:no/longer
31041 U05:no/please
32715 U05:not/do
27000 U05:not/sure
32130 U05:not/want
26343 U05:ohn/son
36009 U05:ok/now
30879 U05:ok/please
30960 U05:okay/please
42642 U05:password/and
39447 U05:password/for
9387 U05:password/i
11052 U05:password/please
25452 U05:paul/pogba
33723 U05:phone/call
34101 U05:phone/please
27675 U05:please/check
5409 U05:please/help
39798 U05:please/reset
43857 U05:remember/my
40113 U05:remember/password
43758 U05:reset/account
39816 U05:reset/it
33084 U05:reset/its
5850 U05:reset/my
2529 U05:reset/password
15255 U05:reset/user
18684 U05:robert/brown
28638 U05:ronaldo/for
29601 U05:ronaldo/is
41418 U05:seem/to
35388 U05:send/me
43002 U05:sign/in
10998 U05:smith/help
11268 U05:smith/hernandez
5157 U05:smith/please
33858 U05:sms/please
36819 U05:still/can't
37089 U05:still/cannot
27234 U05:sure/about
11124 U05:thanh/help
8235 U05:thanh/please
8541 U05:thanh/trung
7164 U05:thomas/lopez
14634 U05:times/but
41607 U05:to/be
42318 U05:to/my
2043 U05:to/reset
13590 U05:to/ttx
31527 U05:to/unlock
34443 U05:to/use
14148 U05:today/many
13185 U05:tried/login
44397 U05:trouble/with
8613 U05:trung/please
13851 U05:ttx/today
43731 U05:unlock/account
31662 U05:unlock/it
41976 U05:unlock/my
34713 U05:use/email
34920 U05:use/phone
34515 U05:use/sms
15480 U05:user/id
35181 U05:using/email
35208 U05:using/phone
35109 U05:using/sms
1647 U05:want/to
12465 U05:what/happened
12762 U05:with/my
30798 U05:yes/please
43533 U05:you/please
9846 U05:your/help
37242 U06:1/.
38313 U06:1012/.
38745 U06:11212112/.
37422 U06:12/.
37593 U06:123/.
37737 U06:1234/.
37881 U06:12345/.
38457 U06:1544/.
38601 U06:154422/.
39303 U06:1789234081731234897/.
38169 U06:21341/.
38025 U06:54321/.
44928 U06:_B-1/.
37161 U06:_B-1/1
38232 U06:_B-1/1012
38664 U06:_B-1/11212112
37305 U06:_B-1/12
37512 U06:_B-1/123
37656 U06:_B-1/1234
37800 U06:_B-1/12345
38376 U06:_B-1/1544
38520 U06:_B-1/154422
38088 U06:_B-1/21341
37944 U06:_B-1/54321
17343 U06:_B-1/abcdef
17001 U06:_B-1/abcdefghjklmn
17487 U06:_B-1/abcdefghjoqei
20394 U06:_B-1/anthony.thomas
41994 U06:_B-1/can't
29646 U06:_B-1/chaan
20250 U06:_B-1/chaandeson
19242 U06:_B-1/chrmiller
43146 U06:_B-1/could
19674 U06:_B-1/danhernandez
29556 U06:_B-1/david
17199 U06:_B-1/davidbeck
18810 U06:_B-1/davidjones
32175 U06:_B-1/do
32319 U06:_B-1/don't
21123 U06:_B-1/eli
20970 U06:_B-1/elijackson
33300 U06:_B-1/email
3177 U06:_B-1/hello
9909 U06:_B-1/help
54 U06:_B-1/i
10530 U06:_B-1/i'm
39357 U06:_B-1/it
35559 U06:_B-1/it's
17136 U06:_B-1/jam
17154 U06:_B-1/jamjohnson
20106 U06:_B-1/jenwilson
18198 U06:_B-1/joh
18063 U06:_B-1/johwilliams
19386 U06:_B-1/jpshep.martinez
29718 U06:_B-1/linda
20682 U06:_B-1/linda.lee
20826 U06:_B-1/mark.moore
19098 U06:_B-1/maryroddiguez
19962 U06:_B-1/matgonzalez
17919 U06:_B-1/micheal.smith
21501 U06:_B-1/my
30636 U06:_B-1/no
30348 U06:_B-1/ok
30492 U06:_B-1/okay
20538 U06:_B-1/patriciataylor
17775 U06:_B-1/paul.pogba
17631 U06:_B-1/paulpogba
33453 U06:_B-1/phone
32139 U06:_B-1/please
12843 U06:_B-1/reset
19530 U06:_B-1/richarddavis
18378 U06:_B-1/robert
18225 U06:_B-1/robertbrown
35226 U06:_B-1/send
33156 U06:_B-1/sms
19818 U06:_B-1/thomas.lopez
32157 U06:_B-1/unlock
34965 U06:_B-1/using
18954 U06:_B-1/williamgarcia
30204 U06:_B-1/yes
24498 U06:ab/cd
22437 U06:abcd/efghj
17424 U06:abcdef/.
17082 U06:abcdefghjklmn/.
17568 U06:abcdefghjoqei/.
45549 U06:able/access
27243 U06:about/my
42174 U06:access/to
29547 U06:account/.
29025 U06:account/chaan
28287 U06:account/david
44703 U06:account/having
42336 U06:account/help
44469 U06:account/i
23382 U06:account/is
28710 U06:account/jam
27837 U06:account/jamjohnson
43812 U06:account/my
45729 U06:account/need
40464 U06:account/password
27495 U06:account/please
41076 U06:account/seem
42651 U06:and/can't
20475 U06:anthony.thomas/.
41616 U06:be/locked
23985 U06:beck/.
28440 U06:beck/ronaldo
18693 U06:brown/.
14643 U06:but/i
33732 U06:call/.
34011 U06:call/please
14823 U06:can't/.
42084 U06:can't/access
10215 U06:can't/login
42795 U06:can't/sign
37098 U06:cannot/.
24696 U06:cd/ef
29169 U06:chaan/deson
20331 U06:chaandeson/.
27684 U06:check/account
19323 U06:chrmiller/.
39033 U06:code/is
43290 U06:could/you
19755 U06:danhernandez/.
6318 U06:daniel/hernandez
23850 U06:david/beck
17280 U06:davidbeck/.
18891 U06:davidjones/.
29304 U06:deson/for
29682 U06:deson/is
32211 U06:do/it
31995 U06:do/not
32499 U06:do/this
32409 U06:don't/do
11673 U06:don't/known
39969 U06:don't/remember
31176 U06:don't/want
7947 U06:duy/thanh
24876 U06:ef/.
22635 U06:efghj/oqei
21267 U06:eli/jackson
21051 U06:elijackson/.
33381 U06:email/.
33921 U06:email/please
28080 U06:for/me
39456 U06:for/my
39636 U06:forget/password
40329 U06:forgets/my
40806 U06:forgot/my
12474 U06:happened/with
44154 U06:have/trouble
44793 U06:having/trouble
8802 U06:hello/i
3384 U06:hello/my
43776 U06:hello/please
9855 U06:help/.
40635 U06:help/i
5418 U06:help/me
40500 U06:help/my
41931 U06:help/to
11277 U06:hernandez/help
6489 U06:hernandez/please
11079 U06:i'm/duy
10674 U06:i'm/michael
11142 U06:i'm/nguyen
45126 U06:i'm/no
26604 U06:i'm/not
10071 U06:i/can't
31905 U06:i/do
11466 U06:i/don't
39555 U06:i/forget
40248 U06:i/forgets
40725 U06:i/forgot
44010 U06:i/have
36216 U06:i/logged
8892 U06:i/lost
9396 U06:i/need
36675 U06:i/still
12942 U06:i/tried
774 U06:i/want
30186 U06:id/.
21573 U06:id/is
16029 U06:id/jam
15489 U06:id/jamjohnson
16614 U06:id/joh
36495 U06:in/.
43011 U06:in/help
39177 U06:is/1789234081731234897
24300 U06:is/ab
22239 U06:is/abcd
22005 U06:is/abcdef
6129 U06:is/daniel
23706 U06:is/david
21852 U06:is/davidbeck
21636 U06:is/duy
21600 U06:is/jam
25776 U06:is/jamj
21699 U06:is/jamjohnson
4257 U06:is/micheal
29511 U06:is/my
7551 U06:is/nguyen
25182 U06:is/paul
23202 U06:is/paul.pogba
23049 U06:is/paulpogba
6894 U06:is/thomas
35748 U06:it's/ok
31671 U06:it/.
32238 U06:it/for
39384 U06:it/is
33093 U06:its/.
21402 U06:jackson/.
16173 U06:jam/johnson
25974 U06:jamj/ohn
15696 U06:jamjohnson/.
27981 U06:jamjohnson/for
29484 U06:jamjohnson/is
20187 U06:jenwilson/.
16758 U06:joh/williams
16308 U06:johnson/.
28746 U06:johnson/for
29628 U06:johnson/is
18144 U06:johwilliams/.
19467 U06:jpshep.martinez/.
11934 U06:known/what
29997 U06:lee/is
20763 U06:linda.lee/.
29862 U06:linda/lee
41751 U06:locked/help
36360 U06:logged/in
10350 U06:login/please
13194 U06:login/to
45414 U06:longer/able
7173 U06:lopez/please
8982 U06:lost/my
14157 U06:many/times
20907 U06:mark.moore/.
19179 U06:maryroddiguez/.
20043 U06:matgonzalez/.
12834 U06:me/.
35478 U06:me/email
43614 U06:me/i
44550 U06:me/my
35514 U06:me/phone
5652 U06:me/reset
35397 U06:me/sms
11178 U06:michael/help
10818 U06:michael/smith
18000 U06:micheal.smith/.
4563 U06:micheal/smith
23301 U06:my/account
38889 U06:my/code
3645 U06:my/name
5859 U06:my/password
21528 U06:my/user
3951 U06:name/is
44505 U06:need/help
9585 U06:need/your
7749 U06:nguyen/duy
8379 U06:nguyen/thanh
30717 U06:no/.
32796 U06:no/i
45270 U06:no/longer
31023 U06:no/please
32706 U06:not/do
26802 U06:not/sure
32076 U06:not/want
36018 U06:now/.
26172 U06:ohn/son
30429 U06:ok/.
35892 U06:ok/now
30861 U06:ok/please
30573 U06:okay/.
30942 U06:okay/please
22815 U06:oqei/.
2538 U06:password/.
42507 U06:password/and
39429 U06:password/for
9243 U06:password/i
11034 U06:password/please
20619 U06:patriciataylor/.
17856 U06:paul.pogba/.
25326 U06:paul/pogba
17712 U06:paulpogba/.
34947 U06:phone/.
33597 U06:phone/call
34092 U06:phone/please
11061 U06:please/.
27585 U06:please/check
5166 U06:please/help
39780 U06:please/reset
25461 U06:pogba/.
43848 U06:remember/my
40050 U06:remember/password
43749 U06:reset/account
39807 U06:reset/it
33012 U06:reset/its
5787 U06:reset/my
2052 U06:reset/password
15048 U06:reset/user
19611 U06:richarddavis/.
18540 U06:robert/brown
18306 U06:robertbrown/.
28530 U06:ronaldo/for
29592 U06:ronaldo/is
41229 U06:seem/to
35316 U06:send/me
42930 U06:sign/in
40536 U06:smith/.
10944 U06:smith/help
11241 U06:smith/hernandez
4869 U06:smith/please
33237 U06:sms/.
33840 U06:sms/please
26352 U06:son/.
36756 U06:still/can't
37017 U06:still/cannot
27009 U06:sure/about
21672 U06:thanh/.
11115 U06:thanh/help
8127 U06:thanh/please
8469 U06:thanh/trung
32580 U06:this/.
19899 U06:thomas.lopez/.
7038 U06:thomas/lopez
14409 U06:times/but
41427 U06:to/be
42255 U06:to/my
1656 U06:to/reset
13392 U06:to/ttx
31392 U06:to/unlock
34317 U06:to/use
13860 U06:today/many
13041 U06:tried/login
44874 U06:trouble/.
44289 U06:trouble/with
8550 U06:trung/please
43704 U06:ttx/.
13599 U06:ttx/today
32859 U06:unlock/.
43722 U06:unlock/account
31536 U06:unlock/it
41967 U06:unlock/my
34704 U06:use/email
34911 U06:use/phone
34452 U06:use/sms
15264 U06:user/id
35172 U06:using/email
35199 U06:using/phone
35046 U06:using/sms
32832 U06:want/.
1260 U06:want/to
12231 U06:what/happened
19035 U06:williamgarcia/.
16893 U06:williams/.
12654 U06:with/my
30285 U06:yes/.
30780 U06:yes/please
43425 U06:you/please
9729 U06:your/help
2547 U07:./_B+1
37170 U07:1/.
38241 U07:1012/.
38673 U07:11212112/.
37314 U07:12/.
37521 U07:123/.
37665 U07:1234/.
37809 U07:12345/.
38385 U07:1544/.
38529 U07:154422/.
39186 U07:1789234081731234897/.
38097 U07:21341/.
37953 U07:54321/.
24309 U07:ab/cd
22248 U07:abcd/efghj
17352 U07:abcdef/.
17010 U07:abcdefghjklmn/.
17496 U07:abcdefghjoqei/.
45423 U07:able/access
27018 U07:about/my
42093 U07:access/to
29538 U07:account/.
28899 U07:account/chaan
28269 U07:account/david
44631 U07:account/having
42327 U07:account/help
44460 U07:account/i
23310 U07:account/is
28701 U07:account/jam
27693 U07:account/jamjohnson
43803 U07:account/my
45720 U07:account/need
40410 U07:account/password
27378 U07:account/please
40995 U07:account/seem
42516 U07:and/can't
20403 U07:anthony.thomas/.
41436 U07:be/locked
23859 U07:beck/.
28368 U07:beck/ronaldo
18549 U07:brown/.
14418 U07:but/i
33606 U07:call/.
34002 U07:call/please
14769 U07:can't/.
42003 U07:can't/access
10080 U07:can't/login
42660 U07:can't/sign
37026 U07:cannot/.
24507 U07:cd/ef
29034 U07:chaan/deson
20259 U07:chaandeson/.
27594 U07:check/account
19251 U07:chrmiller/.
38898 U07:code/is
43155 U07:could/you
19683 U07:danhernandez/.
6138 U07:daniel/hernandez
23715 U07:david/beck
17208 U07:davidbeck/.
18819 U07:davidjones/.
29178 U07:deson/for
29673 U07:deson/is
32184 U07:do/it
31914 U07:do/not
32418 U07:do/this
32328 U07:don't/do
11475 U07:don't/known
39897 U07:don't/remember
31158 U07:don't/want
7758 U07:duy/thanh
24705 U07:ef/.
22446 U07:efghj/oqei
21132 U07:eli/jackson
20979 U07:elijackson/.
33309 U07:email/.
33912 U07:email/please
27990 U07:for/me
39438 U07:for/my
39564 U07:forget/password
40257 U07:forgets/my
40734 U07:forgot/my
12240 U07:happened/with
44019 U07:have/trouble
44712 U07:having/trouble
8685 U07:hello/i
3186 U07:hello/my
43767 U07:hello/please
9738 U07:help/.
40563 U07:help/i
5175 U07:help/me
40491 U07:help/my
41922 U07:help/to
11250 U07:hernandez/help
6327 U07:hernandez/please
11070 U07:i'm/duy
10539 U07:i'm/michael
11133 U07:i'm/nguyen
45000 U07:i'm/no
26469 U07:i'm/not
9945 U07:i/can't
31788 U07:i/do
11331 U07:i/don't
39483 U07:i/forget
40176 U07:i/forgets
40644 U07:i/forgot
43884 U07:i/have
36090 U07:i/logged
8811 U07:i/lost
9252 U07:i/need
36603 U07:i/still
12870 U07:i/tried
63 U07:i/want
30177 U07:id/.
21555 U07:id/is
15903 U07:id/jam
15273 U07:id/jamjohnson
16488 U07:id/joh
36369 U07:in/.
42939 U07:in/help
39042 U07:is/1789234081731234897
24165 U07:is/ab
22104 U07:is/abcd
21942 U07:is/abcdef
5976 U07:is/daniel
23580 U07:is/david
21789 U07:is/davidbeck
21627 U07:is/duy
21582 U07:is/jam
25641 U07:is/jamj
21690 U07:is/jamjohnson
3960 U07:is/micheal
29493 U07:is/my
7416 U07:is/nguyen
25056 U07:is/paul
23139 U07:is/paul.pogba
22986 U07:is/paulpogba
6768 U07:is/thomas
35568 U07:it's/ok
31545 U07:it/.
32220 U07:it/for
39366 U07:it/is
33021 U07:its/.
21276 U07:jackson/.
16038 U07:jam/johnson
25785 U07:jamj/ohn
15498 U07:jamjohnson/.
27846 U07:jamjohnson/for
29466 U07:jamjohnson/is
20115 U07:jenwilson/.
16623 U07:joh/williams
16182 U07:johnson/.
28737 U07:johnson/for
29619 U07:johnson/is
18072 U07:johwilliams/.
19395 U07:jpshep.martinez/.
11682 U07:known/what
29871 U07:lee/is
20691 U07:linda.lee/.
29727 U07:linda/lee
41625 U07:locked/help
36225 U07:logged/in
10224 U07:login/please
13050 U07:login/to
45279 U07:longer/able
7047 U07:lopez/please
8901 U07:lost/my
13869 U07:many/times
20835 U07:mark.moore/.
19107 U07:maryroddiguez/.
19971 U07:matgonzalez/.
12825 U07:me/.
35469 U07:me/email
43596 U07:me/i
44532 U07:me/my
35505 U07:me/phone
5427 U07:me/reset
35325 U07:me/sms
11169 U07:michael/help
10683 U07:michael/smith
17928 U07:micheal.smith/.
4266 U07:micheal/smith
23229 U07:my/account
38808 U07:my/code
3393 U07:my/name
5796 U07:my/password
21510 U07:my/user
3654 U07:name/is
44496 U07:need/help
9405 U07:need/your
7560 U07:nguyen/duy
8307 U07:nguyen/thanh
30645 U07:no/.
32733 U07:no/i
45135 U07:no/longer
31014 U07:no/please
32697 U07:not/do
26613 U07:not/sure
32004 U07:not/want
35901 U07:now/.
25983 U07:ohn/son
30357 U07:ok/.
35757 U07:ok/now
30852 U07:ok/please
30501 U07:okay/.
30933 U07:okay/please
22644 U07:oqei/.
2061 U07:password/.
42426 U07:password/and
39411 U07:password/for
9117 U07:password/i
11016 U07:password/please
20547 U07:patriciataylor/.
17784 U07:paul.pogba/.
25191 U07:paul/pogba
17640 U07:paulpogba/.
34938 U07:phone/.
33462 U07:phone/call
34083 U07:phone/please
11043 U07:please/.
27504 U07:please/check
4878 U07:please/help
39717 U07:please/reset
25335 U07:pogba/.
43839 U07:remember/my
39978 U07:remember/password
43740 U07:reset/account
39789 U07:reset/it
32940 U07:reset/its
5661 U07:reset/my
1665 U07:reset/password
14913 U07:reset/user
19539 U07:richarddavis/.
18387 U07:robert/brown
18234 U07:robertbrown/.
28449 U07:ronaldo/for
29583 U07:ronaldo/is
41085 U07:seem/to
35235 U07:send/me
42804 U07:sign/in
40527 U07:smith/.
10827 U07:smith/help
11214 U07:smith/hernandez
4572 U07:smith/please
33165 U07:sms/.
33831 U07:sms/please
26181 U07:son/.
36684 U07:still/can't
36945 U07:still/cannot
26811 U07:sure/about
21663 U07:thanh/.
11106 U07:thanh/help
7956 U07:thanh/please
8388 U07:thanh/trung
32508 U07:this/.
19827 U07:thomas.lopez/.
6903 U07:thomas/lopez
14166 U07:times/but
41238 U07:to/be
42183 U07:to/my
1269 U07:to/reset
13203 U07:to/ttx
31266 U07:to/unlock
34191 U07:to/use
13608 U07:today/many
12951 U07:tried/login
44802 U07:trouble/.
44163 U07:trouble/with
8478 U07:trung/please
43695 U07:ttx/.
13401 U07:ttx/today
32850 U07:unlock/.
43713 U07:unlock/account
31401 U07:unlock/it
41958 U07:unlock/my
34641 U07:use/email
34803 U07:use/phone
34326 U07:use/sms
15057 U07:user/id
35163 U07:using/email
35190 U07:using/phone
34974 U07:using/sms
32823 U07:want/.
783 U07:want/to
11943 U07:what/happened
18963 U07:williamgarcia/.
16767 U07:williams/.
12483 U07:with/my
30213 U07:yes/.
30771 U07:yes/please
43299 U07:you/please
9594 U07:your/help
2070 U08:./_B+1
39051 U08:1789234081731234897/.
2556 U08:_B+1/_B+2
24174 U08:ab/cd
22113 U08:abcd/efghj
21951 U08:abcdef/.
45288 U08:able/access
26820 U08:about/my
42012 U08:access/to
29520 U08:account/.
28827 U08:account/chaan
28260 U08:account/david
44559 U08:account/having
42264 U08:account/help
44406 U08:account/i
23238 U08:account/is
28692 U08:account/jam
27603 U08:account/jamjohnson
43794 U08:account/my
45711 U08:account/need
40338 U08:account/password
27252 U08:account/please
40932 U08:account/seem
42435 U08:and/can't
41247 U08:be/locked
23724 U08:beck/.
28296 U08:beck/ronaldo
18396 U08:brown/.
14175 U08:but/i
33471 U08:call/.
33993 U08:call/please
14652 U08:can't/.
43623 U08:can't/access
9954 U08:can't/login
42525 U08:can't/sign
36954 U08:cannot/.
24318 U08:cd/ef
28908 U08:chaan/deson
27513 U08:check/account
38817 U08:code/is
5985 U08:daniel/hernandez
23589 U08:david/beck
21798 U08:davidbeck/.
29043 U08:deson/for
29655 U08:deson/is
31797 U08:do/not
32337 U08:do/this
11340 U08:don't/known
39834 U08:don't/remember
31104 U08:don't/want
7569 U08:duy/thanh
24516 U08:ef/.
22257 U08:efghj/oqei
34650 U08:email/.
27855 U08:for/me
39420 U08:for/my
39492 U08:forget/password
40185 U08:forgets/my
40653 U08:forgot/my
11952 U08:happened/with
43893 U08:have/trouble
44640 U08:having/trouble
9603 U08:help/.
40545 U08:help/i
4887 U08:help/me
40482 U08:help/my
41913 U08:help/to
11223 U08:hernandez/help
6147 U08:hernandez/please
14427 U08:i/can't
32841 U08:i/do
32742 U08:i/don't
40572 U08:i/forgot
8694 U08:i/lost
9126 U08:i/need
30168 U08:id/.
21537 U08:id/is
15831 U08:id/jam
15066 U08:id/jamjohnson
16416 U08:id/joh
36234 U08:in/.
42813 U08:in/help
38907 U08:is/1789234081731234897
24093 U08:is/ab
22032 U08:is/abcd
21879 U08:is/abcdef
5886 U08:is/daniel
23508 U08:is/david
21726 U08:is/davidbeck
21618 U08:is/duy
21564 U08:is/jam
25569 U08:is/jamj
21681 U08:is/jamjohnson
3663 U08:is/micheal
29475 U08:is/my
7344 U08:is/nguyen
24984 U08:is/paul
23076 U08:is/paul.pogba
22923 U08:is/paulpogba
6696 U08:is/thomas
31410 U08:it/.
32193 U08:it/for
32949 U08:its/.
21141 U08:jackson/.
15912 U08:jam/johnson
25650 U08:jamj/ohn
15282 U08:jamjohnson/.
27702 U08:jamjohnson/for
16497 U08:joh/williams
16047 U08:johnson/.
28719 U08:johnson/for
29610 U08:johnson/is
11484 U08:known/what
29736 U08:lee/is
41445 U08:locked/help
36099 U08:logged/in
10089 U08:login/please
12960 U08:login/to
45144 U08:longer/able
6912 U08:lopez/please
8820 U08:lost/my
13617 U08:many/times
12816 U08:me/.
35460 U08:me/email
43542 U08:me/i
44523 U08:me/my
35496 U08:me/phone
5184 U08:me/reset
35244 U08:me/sms
11160 U08:michael/help
10548 U08:michael/smith
3969 U08:micheal/smith
27027 U08:my/account
3195 U08:my/name
5670 U08:my/password
30006 U08:my/user
3402 U08:name/is
44478 U08:need/help
9261 U08:need/your
7425 U08:nguyen/duy
8289 U08:nguyen/thanh
45009 U08:no/longer
32643 U08:not/do
26478 U08:not/sure
31923 U08:not/want
35766 U08:now/.
25794 U08:ohn/son
35577 U08:ok/now
22455 U08:oqei/.
1674 U08:password/.
42363 U08:password/and
39402 U08:password/for
8991 U08:password/i
11007 U08:password/please
23148 U08:paul.pogba/.
25065 U08:paul/pogba
22995 U08:paulpogba/.
34929 U08:phone/.
34812 U08:phone/call
11025 U08:please/.
27387 U08:please/check
4581 U08:please/help
39645 U08:please/reset
25200 U08:pogba/.
43830 U08:remember/my
39906 U08:remember/password
39726 U08:reset/it
32877 U08:reset/its
5436 U08:reset/my
1278 U08:reset/password
14841 U08:reset/user
28377 U08:ronaldo/for
29574 U08:ronaldo/is
41004 U08:seem/to
42669 U08:sign/in
40518 U08:smith/.
10692 U08:smith/help
11196 U08:smith/hernandez
4275 U08:smith/please
34335 U08:sms/.
25992 U08:son/.
36612 U08:still/can't
36882 U08:still/cannot
26622 U08:sure/about
21645 U08:thanh/.
11088 U08:thanh/help
7767 U08:thanh/please
8316 U08:thanh/trung
32427 U08:this/.
6777 U08:thomas/lopez
13878 U08:times/but
41094 U08:to/be
42102 U08:to/my
792 U08:to/reset
13059 U08:to/ttx
31185 U08:to/unlock
34119 U08:to/use
13410 U08:today/many
12879 U08:tried/login
44721 U08:trouble/.
44028 U08:trouble/with
8397 U08:trung/please
43686 U08:ttx/.
13212 U08:ttx/today
31275 U08:unlock/it
41940 U08:unlock/my
34578 U08:use/email
34731 U08:use/phone
34200 U08:use/sms
14922 U08:user/id
32814 U08:want/.
72 U08:want/to
11691 U08:what/happened
16632 U08:williams/.
12249 U08:with/my
43164 U08:you/please
9414 U08:your/help
1287 U10:-
801 U10:_B-1
81 U10:_B-2
6498 U10:name
1080 U110:_B-1/_B-1
549 U110:_B-2/_B-2
24795 U110:ab/-
22734 U110:abcd/-
45693 U110:able/-
27450 U110:about/-
42300 U110:access/-
23481 U110:account/-
42876 U110:and/-
41814 U110:be/-
28593 U110:beck/-
14805 U110:but/-
34065 U110:call/-
10413 U110:can't/-
24939 U110:cd/-
29367 U110:chaan/-
27927 U110:check/-
39249 U110:code/-
43488 U110:could/-
6579 U110:daniel/-
24048 U110:david/-
29448 U110:deson/-
32112 U110:do/-
12096 U110:don't/-
8190 U110:duy/-
22878 U110:efghj/-
21465 U110:eli/-
33975 U110:email/-
28242 U110:for/-
39762 U110:forget/-
40446 U110:forgets/-
40905 U110:forgot/-
12717 U110:happened/-
44352 U110:have/-
44910 U110:having/-
3807 U110:hello/-
5733 U110:help/-
6669 U110:hernandez/-
10890 U110:i'm/-
1494 U110:i/-
15786 U110:id/-
43110 U110:in/-
4725 U110:is/-
35964 U110:it's/-
32292 U110:it/-
16371 U110:jam/-
26271 U110:jamj/-
28161 U110:jamjohnson/-
16956 U110:joh/-
28800 U110:johnson/-
12366 U110:known/-
30150 U110:lee/-
30069 U110:linda/-
41895 U110:locked/-
36558 U110:logged/-
10494 U110:login/-
45612 U110:longer/-
7317 U110:lopez/-
9189 U110:lost/-
14544 U110:many/-
5832 U110:me/-
10980 U110:michael/-
5031 U110:micheal/-
4113 U110:my/-
4419 U110:name/-
9801 U110:need/-
8046 U110:nguyen/-
31077 U110:no/-
27144 U110:not/-
26415 U110:ohn/-
30915 U110:ok/-
30996 U110:okay/-
9504 U110:password/-
25524 U110:paul/-
33795 U110:phone/-
5553 U110:please/-
40149 U110:remember/-
2925 U110:reset/-
18765 U110:robert/-
28674 U110:ronaldo/-
41535 U110:seem/-
35433 U110:send/-
43047 U110:sign/-
5301 U110:smith/-
33894 U110:sms/-
36855 U110:still/-
27315 U110:sure/-
8271 U110:thanh/-
7236 U110:thomas/-
14715 U110:times/-
2358 U110:to/-
14292 U110:today/-
13302 U110:tried/-
44442 U110:trouble/-
8649 U110:trung/-
14022 U110:ttx/-
31734 U110:unlock/-
34551 U110:use/-
15615 U110:user/-
35145 U110:using/-
1890 U110:want/-
12573 U110:what/-
12798 U110:with/-
30834 U110:yes/-
43578 U110:you/-
9891 U110:your/-
37278 U111:1/-
38349 U111:1012/-
38781 U111:11212112/-
37485 U111:12/-
37629 U111:123/-
37773 U111:1234/-
37917 U111:12345/-
38493 U111:1544/-
38637 U111:154422/-
39339 U111:1789234081731234897/-
38205 U111:21341/-
38061 U111:54321/-
558 U111:_B-1/_B-1
24606 U111:ab/-
22545 U111:abcd/-
17460 U111:abcdef/-
17118 U111:abcdefghjklmn/-
17604 U111:abcdefghjoqei/-
45621 U111:able/-
27324 U111:about/-
42219 U111:access/-
23418 U111:account/-
42732 U111:and/-
20511 U111:anthony.thomas/-
41688 U111:be/-
24057 U111:beck/-
18774 U111:brown/-
14724 U111:but/-
33804 U111:call/-
10287 U111:can't/-
37134 U111:cannot/-
24804 U111:cd/-
29241 U111:chaan/-
20367 U111:chaandeson/-
27774 U111:check/-
19359 U111:chrmiller/-
39114 U111:code/-
43362 U111:could/-
19791 U111:danhernandez/-
6426 U111:daniel/-
23922 U111:david/-
17316 U111:davidbeck/-
18927 U111:davidjones/-
29376 U111:deson/-
32040 U111:do/-
11808 U111:don't/-
8055 U111:duy/-
24948 U111:ef/-
22743 U111:efghj/-
21339 U111:eli/-
21087 U111:elijackson/-
33417 U111:email/-
28170 U111:for/-
39681 U111:forget/-
40374 U111:forgets/-
40842 U111:forgot/-
12582 U111:happened/-
44226 U111:have/-
44838 U111:having/-
3519 U111:hello/-
5562 U111:help/-
6588 U111:hernandez/-
10755 U111:i'm/-
1089 U111:i/-
15624 U111:id/-
36567 U111:in/-
4428 U111:is/-
35829 U111:it's/-
31743 U111:it/-
33129 U111:its/-
21474 U111:jackson/-
16245 U111:jam/-
26082 U111:jamj/-
15795 U111:jamjohnson/-
20223 U111:jenwilson/-
16830 U111:joh/-
16380 U111:johnson/-
18180 U111:johwilliams/-
19503 U111:jpshep.martinez/-
12105 U111:known/-
30078 U111:lee/-
20799 U111:linda.lee/-
29934 U111:linda/-
41823 U111:locked/-
36432 U111:logged/-
10422 U111:login/-
45486 U111:longer/-
7245 U111:lopez/-
9054 U111:lost/-
14301 U111:many/-
20943 U111:mark.moore/-
19215 U111:maryroddiguez/-
20079 U111:matgonzalez/-
5742 U111:me/-
10899 U111:michael/-
18036 U111:micheal.smith/-
4734 U111:micheal/-
3816 U111:my/-
4122 U111:name/-
9666 U111:need/-
7857 U111:nguyen/-
30753 U111:no/-
26910 U111:not/-
36054 U111:now/-
26280 U111:ohn/-
30465 U111:ok/-
30609 U111:okay/-
22887 U111:oqei/-
2934 U111:password/-
20655 U111:patriciataylor/-
17892 U111:paul.pogba/-
25398 U111:paul/-
17748 U111:paulpogba/-
33669 U111:phone/-
5310 U111:please/-
25533 U111:pogba/-
40086 U111:remember/-
2367 U111:reset/-
19647 U111:richarddavis/-
18630 U111:robert/-
18342 U111:robertbrown/-
28602 U111:ronaldo/-
41337 U111:seem/-
35361 U111:send/-
42975 U111:sign/-
5040 U111:smith/-
33273 U111:sms/-
26424 U111:son/-
36792 U111:still/-
27153 U111:sure/-
8199 U111:thanh/-
32616 U111:this/-
19935 U111:thomas.lopez/-
7110 U111:thomas/-
14553 U111:times/-
1899 U111:to/-
14031 U111:today/-
13122 U111:tried/-
44361 U111:trouble/-
8586 U111:trung/-
13734 U111:ttx/-
31608 U111:unlock/-
34488 U111:use/-
15399 U111:user/-
35082 U111:using/-
1503 U111:want/-
12375 U111:what/-
19071 U111:williamgarcia/-
16965 U111:williams/-
12726 U111:with/-
30321 U111:yes/-
43497 U111:you/-
9810 U111:your/-
2943 U112:./.
37206 U112:1/-
38277 U112:1012/-
38709 U112:11212112/-
37386 U112:12/-
37557 U112:123/-
37701 U112:1234/-
37845 U112:12345/-
38421 U112:1544/-
38565 U112:154422/-
39258 U112:1789234081731234897/-
38133 U112:21341/-
37989 U112:54321/-
24408 U112:ab/-
22347 U112:abcd/-
17388 U112:abcdef/-
17046 U112:abcdefghjklmn/-
17532 U112:abcdefghjoqei/-
45495 U112:able/-
27162 U112:about/-
42138 U112:access/-
23346 U112:account/-
42588 U112:and/-
20439 U112:anthony.thomas/-
41544 U112:be/-
23931 U112:beck/-
18639 U112:brown/-
14562 U112:but/-
33678 U112:call/-
10152 U112:can't/-
37062 U112:cannot/-
24615 U112:cd/-
29106 U112:chaan/-
20295 U112:chaandeson/-
27639 U112:check/-
19287 U112:chrmiller/-
38970 U112:code/-
43227 U112:could/-
19719 U112:danhernandez/-
6255 U112:daniel/-
23787 U112:david/-
17244 U112:davidbeck/-
18855 U112:davidjones/-
29250 U112:deson/-
31959 U112:do/-
11574 U112:don't/-
7866 U112:duy/-
24813 U112:ef/-
22554 U112:efghj/-
21204 U112:eli/-
21015 U112:elijackson/-
33345 U112:email/-
28035 U112:for/-
39600 U112:forget/-
40293 U112:forgets/-
40770 U112:forgot/-
12384 U112:happened/-
44091 U112:have/-
44757 U112:having/-
3285 U112:hello/-
5319 U112:help/-
6435 U112:hernandez/-
10611 U112:i'm/-
567 U112:i/-
15408 U112:id/-
36441 U112:in/-
4131 U112:is/-
35667 U112:it's/-
31617 U112:it/-
33057 U112:its/-
21348 U112:jackson/-
16110 U112:jam/-
25884 U112:jamj/-
15633 U112:jamjohnson/-
20151 U112:jenwilson/-
16695 U112:joh/-
16254 U112:johnson/-
18108 U112:johwilliams/-
19431 U112:jpshep.martinez/-
11817 U112:known/-
29943 U112:lee/-
20727 U112:linda.lee/-
29799 U112:linda/-
41697 U112:locked/-
36297 U112:logged/-
10296 U112:login/-
45351 U112:longer/-
7119 U112:lopez/-
8937 U112:lost/-
14040 U112:many/-
20871 U112:mark.moore/-
19143 U112:maryroddiguez/-
20007 U112:matgonzalez/-
5571 U112:me/-
10764 U112:michael/-
17964 U112:micheal.smith/-
4437 U112:micheal/-
3528 U112:my/-
3825 U112:name/-
9513 U112:need/-
7659 U112:nguyen/-
30681 U112:no/-
26712 U112:not/-
35973 U112:now/-
26091 U112:ohn/-
30393 U112:ok/-
30537 U112:okay/-
22752 U112:oqei/-
2376 U112:password/-
20583 U112:patriciataylor/-
17820 U112:paul.pogba/-
25263 U112:paul/-
17676 U112:paulpogba/-
33534 U112:phone/-
5049 U112:please/-
25407 U112:pogba/-
40014 U112:remember/-
1908 U112:reset/-
19575 U112:richarddavis/-
18477 U112:robert/-
18270 U112:robertbrown/-
28485 U112:ronaldo/-
41157 U112:seem/-
35280 U112:send/-
42885 U112:sign/-
4743 U112:smith/-
33201 U112:sms/-
26289 U112:son/-
36720 U112:still/-
26919 U112:sure/-
8064 U112:thanh/-
32544 U112:this/-
19863 U112:thomas.lopez/-
6975 U112:thomas/-
14310 U112:times/-
1512 U112:to/-
13743 U112:today/-
12996 U112:tried/-
44235 U112:trouble/-
8514 U112:trung/-
13500 U112:ttx/-
31473 U112:unlock/-
34398 U112:use/-
15174 U112:user/-
35010 U112:using/-
1098 U112:want/-
12114 U112:what/-
18999 U112:williamgarcia/-
16839 U112:williams/-
12591 U112:with/-
30249 U112:yes/-
43371 U112:you/-
9675 U112:your/-
2385 U113:./.
39123 U113:1789234081731234897/-
2952 U113:_B+1/_B+1
24237 U113:ab/-
22176 U113:abcd/-
21987 U113:abcdef/-
45360 U113:able/-
26928 U113:about/-
42048 U113:access/-
23274 U113:account/-
42471 U113:and/-
41346 U113:be/-
23796 U113:beck/-
18486 U113:brown/-
14319 U113:but/-
33543 U113:call/-
10017 U113:can't/-
36990 U113:cannot/-
24417 U113:cd/-
28971 U113:chaan/-
27549 U113:check/-
38853 U113:code/-
6075 U113:daniel/-
23652 U113:david/-
21834 U113:davidbeck/-
29115 U113:deson/-
31860 U113:do/-
11403 U113:don't/-
7668 U113:duy/-
24624 U113:ef/-
22356 U113:efghj/-
34686 U113:email/-
27936 U113:for/-
39528 U113:forget/-
40221 U113:forgets/-
40689 U113:forgot/-
12123 U113:happened/-
43956 U113:have/-
44676 U113:having/-
5058 U113:help/-
6264 U113:hernandez/-
8757 U113:i/-
15183 U113:id/-
36306 U113:in/-
3834 U113:is/-
31482 U113:it/-
32985 U113:its/-
21213 U113:jackson/-
15975 U113:jam/-
25713 U113:jamj/-
15417 U113:jamjohnson/-
16560 U113:joh/-
16119 U113:johnson/-
11583 U113:known/-
29808 U113:lee/-
41553 U113:locked/-
36162 U113:logged/-
10161 U113:login/-
45207 U113:longer/-
6984 U113:lopez/-
8856 U113:lost/-
13752 U113:many/-
5328 U113:me/-
10620 U113:michael/-
4140 U113:micheal/-
3294 U113:my/-
3537 U113:name/-
9324 U113:need/-
7488 U113:nguyen/-
45072 U113:no/-
26541 U113:not/-
35838 U113:now/-
25893 U113:ohn/-
35676 U113:ok/-
22563 U113:oqei/-
1917 U113:password/-
23184 U113:paul.pogba/-
25128 U113:paul/-
23031 U113:paulpogba/-
34875 U113:phone/-
4752 U113:please/-
25272 U113:pogba/-
39942 U113:remember/-
1521 U113:reset/-
28413 U113:ronaldo/-
41040 U113:seem/-
42741 U113:sign/-
4446 U113:smith/-
34407 U113:sms/-
26100 U113:son/-
36648 U113:still/-
26721 U113:sure/-
7875 U113:thanh/-
32463 U113:this/-
6840 U113:thomas/-
14049 U113:times/-
1107 U113:to/-
13509 U113:today/-
12915 U113:tried/-
44100 U113:trouble/-
8433 U113:trung/-
13311 U113:ttx/-
31338 U113:unlock/-
34263 U113:use/-
14985 U113:user/-
576 U113:want/-
11826 U113:what/-
16704 U113:williams/-
12393 U113:with/-
43236 U113:you/-
9522 U113:your/-
1926 U114:./.
38979 U114:1789234081731234897/-
2394 U114:_B+1/_B+1
2961 U114:_B+2/_B+2
24129 U114:ab/-
22068 U114:abcd/-
21915 U114:abcdef/-
45216 U114:able/-
26730 U114:about/-
43659 U114:access/-
27171 U114:account/-
42399 U114:and/-
41166 U114:be/-
23661 U114:beck/-
14058 U114:but/-
34884 U114:call/-
14571 U114:can't/-
36918 U114:cannot/-
24246 U114:cd/-
28863 U114:chaan/-
27459 U114:check/-
5940 U114:daniel/-
23544 U114:david/-
21762 U114:davidbeck/-
28980 U114:deson/-
32679 U114:do/-
32778 U114:don't/-
7497 U114:duy/-
24426 U114:ef/-
22185 U114:efghj/-
34614 U114:email/-
27783 U114:for/-
40608 U114:forgot/-
11835 U114:happened/-
44595 U114:having/-
4761 U114:help/-
6084 U114:hernandez/-
9063 U114:i/-
14994 U114:id/-
36171 U114:in/-
3546 U114:is/-
31347 U114:it/-
32913 U114:its/-
15867 U114:jam/-
25605 U114:jamj/-
15192 U114:jamjohnson/-
16452 U114:joh/-
15984 U114:johnson/-
11412 U114:known/-
41355 U114:locked/-
10026 U114:login/-
45081 U114:longer/-
6849 U114:lopez/-
8766 U114:lost/-
13518 U114:many/-
5067 U114:me/-
3843 U114:micheal/-
5580 U114:my/-
3303 U114:name/-
9198 U114:need/-
7380 U114:nguyen/-
31869 U114:not/-
35685 U114:now/-
25722 U114:ohn/-
22365 U114:oqei/-
1530 U114:password/-
23112 U114:paul.pogba/-
25020 U114:paul/-
22959 U114:paulpogba/-
34767 U114:phone/-
4455 U114:please/-
25137 U114:pogba/-
39870 U114:remember/-
1116 U114:reset/-
28332 U114:ronaldo/-
40968 U114:seem/-
42597 U114:sign/-
4149 U114:smith/-
34272 U114:sms/-
25902 U114:son/-
26550 U114:sure/-
7677 U114:thanh/-
32373 U114:this/-
6732 U114:thomas/-
13761 U114:times/-
585 U114:to/-
13320 U114:today/-
43965 U114:trouble/-
8352 U114:trung/-
13131 U114:ttx/-
31221 U114:unlock/-
34155 U114:use/-
14877 U114:user/-
31140 U114:want/-
11592 U114:what/-
16569 U114:williams/-
12132 U114:with/-
9333 U114:your/-
810 U11:-
90 U11:_B-1
6336 U11:name
1539 U120:-
1125 U120:_B-1
594 U120:_B-2
1134 U121:-
603 U121:_B-1
612 U123:-
2970 U123:.
621 U124:-
2403 U124:.
2979 U124:_B+1
630 U125:-
1935 U125:.
2412 U125:_B+1
2988 U125:_B+2
1548 U126:-/-
1143 U126:_B-1/-
639 U126:_B-2/_B-1
1152 U127:-/-
2997 U127:-/.
648 U127:_B-1/-
44973 U127:_B-1/.
657 U128:-/-
2421 U128:-/.
3006 U128:./_B+1
666 U129:-/-
1944 U129:-/.
2430 U129:./_B+1
3015 U129:_B+1/_B+2
99 U12:-
2565 U12:.
6156 U12:name
1161 U130:_B-1/_B-1
675 U130:_B-2/_B-2
24822 U130:ab/-
22761 U130:abcd/-
45702 U130:able/-
27468 U130:about/-
42309 U130:access/-
23490 U130:account/-
42894 U130:and/-
41832 U130:be/-
28611 U130:beck/-
14814 U130:but/-
34074 U130:call/-
10431 U130:can't/-
24957 U130:cd/-
29385 U130:chaan/-
27945 U130:check/-
39267 U130:code/-
43506 U130:could/-
6597 U130:daniel/-
24066 U130:david/-
29457 U130:deson/-
32121 U130:do/-
12141 U130:don't/-
8208 U130:duy/-
22896 U130:efghj/-
21483 U130:eli/-
33984 U130:email/-
28251 U130:for/-
39771 U130:forget/-
40455 U130:forgets/-
40914 U130:forgot/-
12735 U130:happened/-
44370 U130:have/-
44919 U130:having/-
3852 U130:hello/-
5751 U130:help/-
6678 U130:hernandez/-
10908 U130:i'm/-
1557 U130:i/-
15804 U130:id/-
43119 U130:in/-
4770 U130:is/-
35982 U130:it's/-
32301 U130:it/-
16389 U130:jam/-
26298 U130:jamj/-
28179 U130:jamjohnson/-
16974 U130:joh/-
28809 U130:johnson/-
12402 U130:known/-
30159 U130:lee/-
30087 U130:linda/-
41904 U130:locked/-
36576 U130:logged/-
10503 U130:login/-
45630 U130:longer/-
7326 U130:lopez/-
9207 U130:lost/-
14580 U130:many/-
5841 U130:me/-
10989 U130:michael/-
5076 U130:micheal/-
4158 U130:my/-
4464 U130:name/-
9819 U130:need/-
8073 U130:nguyen/-
31086 U130:no/-
27180 U130:not/-
26433 U130:ohn/-
30924 U130:ok/-
31005 U130:okay/-
9531 U130:password/-
25542 U130:paul/-
33813 U130:phone/-
5589 U130:please/-
40158 U130:remember/-
3024 U130:reset/-
18783 U130:robert/-
28683 U130:ronaldo/-
41562 U130:seem/-
35442 U130:send/-
43056 U130:sign/-
5337 U130:smith/-
33903 U130:sms/-
36864 U130:still/-
27333 U130:sure/-
8280 U130:thanh/-
7254 U130:thomas/-
14733 U130:times/-
2439 U130:to/-
14328 U130:today/-
13329 U130:tried/-
44451 U130:trouble/-
8658 U130:trung/-
14067 U130:ttx/-
31752 U130:unlock/-
34560 U130:use/-
15642 U130:user/-
35154 U130:using/-
1953 U130:want/-
12600 U130:what/-
12807 U130:with/-
30843 U130:yes/-
43587 U130:you/-
9900 U130:your/-
37287 U131:1/-
38358 U131:1012/-
38790 U131:11212112/-
37494 U131:12/-
37638 U131:123/-
37782 U131:1234/-
37926 U131:12345/-
38502 U131:1544/-
38646 U131:154422/-
39348 U131:1789234081731234897/-
38214 U131:21341/-
38070 U131:54321/-
684 U131:_B-1/_B-1
24633 U131:ab/-
22572 U131:abcd/-
17469 U131:abcdef/-
17127 U131:abcdefghjklmn/-
17613 U131:abcdefghjoqei/-
45639 U131:able/-
27342 U131:about/-
42228 U131:access/-
23427 U131:account/-
42750 U131:and/-
20520 U131:anthony.thomas/-
41706 U131:be/-
24075 U131:beck/-
18792 U131:brown/-
14742 U131:but/-
33822 U131:call/-
10305 U131:can't/-
37143 U131:cannot/-
24831 U131:cd/-
29259 U131:chaan/-
20376 U131:chaandeson/-
27792 U131:check/-
19368 U131:chrmiller/-
39132 U131:code/-
43380 U131:could/-
19800 U131:danhernandez/-
6444 U131:daniel/-
23940 U131:david/-
17325 U131:davidbeck/-
18936 U131:davidjones/-
29394 U131:deson/-
32049 U131:do/-
11844 U131:don't/-
8082 U131:duy/-
24966 U131:ef/-
22770 U131:efghj/-
21357 U131:eli/-
21096 U131:elijackson/-
33426 U131:email/-
28188 U131:for/-
39690 U131:forget/-
40383 U131:forgets/-
40851 U131:forgot/-
12609 U131:happened/-
44244 U131:have/-
44847 U131:having/-
3555 U131:hello/-
5598 U131:help/-
6606 U131:hernandez/-
10773 U131:i'm/-
1170 U131:i/-
15651 U131:id/-
36585 U131:in/-
4473 U131:is/-
35847 U131:it's/-
31761 U131:it/-
33138 U131:its/-
21492 U131:jackson/-
16263 U131:jam/-
26109 U131:jamj/-
15813 U131:jamjohnson/-
20232 U131:jenwilson/-
16848 U131:joh/-
16398 U131:johnson/-
18189 U131:johwilliams/-
19512 U131:jpshep.martinez/-
12150 U131:known/-
30096 U131:lee/-
20808 U131:linda.lee/-
29952 U131:linda/-
41841 U131:locked/-
36450 U131:logged/-
10440 U131:login/-
45504 U131:longer/-
7263 U131:lopez/-
9072 U131:lost/-
14337 U131:many/-
20952 U131:mark.moore/-
19224 U131:maryroddiguez/-
20088 U131:matgonzalez/-
5760 U131:me/-
10917 U131:michael/-
18045 U131:micheal.smith/-
4779 U131:micheal/-
3861 U131:my/-
4167 U131:name/-
9684 U131:need/-
7884 U131:nguyen/-
30762 U131:no/-
26937 U131:not/-
36063 U131:now/-
26307 U131:ohn/-
30474 U131:ok/-
30618 U131:okay/-
22905 U131:oqei/-
3033 U131:password/-
20664 U131:patriciataylor/-
17901 U131:paul.pogba/-
25416 U131:paul/-
17757 U131:paulpogba/-
33687 U131:phone/-
5346 U131:please/-
25551 U131:pogba/-
40095 U131:remember/-
2448 U131:reset/-
19656 U131:richarddavis/-
18648 U131:robert/-
18351 U131:robertbrown/-
28620 U131:ronaldo/-
41364 U131:seem/-
35370 U131:send/-
42984 U131:sign/-
5085 U131:smith/-
33282 U131:sms/-
26442 U131:son/-
36801 U131:still/-
27189 U131:sure/-
8217 U131:thanh/-
32625 U131:this/-
19944 U131:thomas.lopez/-
7128 U131:thomas/-
14589 U131:times/-
1962 U131:to/-
14076 U131:today/-
13140 U131:tried/-
44379 U131:trouble/-
8595 U131:trung/-
13770 U131:ttx/-
31626 U131:unlock/-
34497 U131:use/-
15426 U131:user/-
35091 U131:using/-
1566 U131:want/-
12411 U131:what/-
19080 U131:williamgarcia/-
16983 U131:williams/-
12744 U131:with/-
30330 U131:yes/-
43515 U131:you/-
9828 U131:your/-
3042 U132:./.
37215 U132:1/-
38286 U132:1012/-
38718 U132:11212112/-
37395 U132:12/-
37566 U132:123/-
37710 U132:1234/-
37854 U132:12345/-
38430 U132:1544/-
38574 U132:154422/-
39276 U132:1789234081731234897/-
38142 U132:21341/-
37998 U132:54321/-
24435 U132:ab/-
22374 U132:abcd/-
17397 U132:abcdef/-
17055 U132:abcdefghjklmn/-
17541 U132:abcdefghjoqei/-
45513 U132:able/-
27198 U132:about/-
42147 U132:access/-
23355 U132:account/-
42606 U132:and/-
20448 U132:anthony.thomas/-
41571 U132:be/-
23949 U132:beck/-
18657 U132:brown/-
14598 U132:but/-
33696 U132:call/-
10170 U132:can't/-
37071 U132:cannot/-
24642 U132:cd/-
29124 U132:chaan/-
20304 U132:chaandeson/-
27648 U132:check/-
19296 U132:chrmiller/-
38988 U132:code/-
43245 U132:could/-
19728 U132:danhernandez/-
6273 U132:daniel/-
23805 U132:david/-
17253 U132:davidbeck/-
18864 U132:davidjones/-
29268 U132:deson/-
31968 U132:do/-
11601 U132:don't/-
7893 U132:duy/-
24840 U132:ef/-
22581 U132:efghj/-
21222 U132:eli/-
21024 U132:elijackson/-
33354 U132:email/-
28044 U132:for/-
39609 U132:forget/-
40302 U132:forgets/-
40779 U132:forgot/-
12420 U132:happened/-
44109 U132:have/-
44766 U132:having/-
3312 U132:hello/-
5355 U132:help/-
6453 U132:hernandez/-
10629 U132:i'm/-
693 U132:i/-
15435 U132:id/-
36459 U132:in/-
4176 U132:is/-
35694 U132:it's/-
31635 U132:it/-
33066 U132:its/-
21366 U132:jackson/-
16128 U132:jam/-
25911 U132:jamj/-
15660 U132:jamjohnson/-
20160 U132:jenwilson/-
16713 U132:joh/-
16272 U132:johnson/-
18117 U132:johwilliams/-
19440 U132:jpshep.martinez/-
11853 U132:known/-
29961 U132:lee/-
20736 U132:linda.lee/-
29817 U132:linda/-
41715 U132:locked/-
36315 U132:logged/-
10314 U132:login/-
45369 U132:longer/-
7137 U132:lopez/-
8946 U132:lost/-
14085 U132:many/-
20880 U132:mark.moore/-
19152 U132:maryroddiguez/-
20016 U132:matgonzalez/-
5607 U132:me/-
10782 U132:michael/-
17973 U132:micheal.smith/-
4482 U132:micheal/-
3564 U132:my/-
3870 U132:name/-
9540 U132:need/-
7686 U132:nguyen/-
30690 U132:no/-
26739 U132:not/-
35991 U132:now/-
26118 U132:ohn/-
30402 U132:ok/-
30546 U132:okay/-
22779 U132:oqei/-
2457 U132:password/-
20592 U132:patriciataylor/-
17829 U132:paul.pogba/-
25281 U132:paul/-
17685 U132:paulpogba/-
33552 U132:phone/-
5094 U132:please/-
25425 U132:pogba/-
40023 U132:remember/-
1971 U132:reset/-
19584 U132:richarddavis/-
18495 U132:robert/-
18279 U132:robertbrown/-
28494 U132:ronaldo/-
41175 U132:seem/-
35289 U132:send/-
42903 U132:sign/-
4788 U132:smith/-
33210 U132:sms/-
26316 U132:son/-
36729 U132:still/-
26946 U132:sure/-
8091 U132:thanh/-
32553 U132:this/-
19872 U132:thomas.lopez/-
6993 U132:thomas/-
14346 U132:times/-
1575 U132:to/-
13779 U132:today/-
13005 U132:tried/-
44253 U132:trouble/-
8523 U132:trung/-
13527 U132:ttx/-
31491 U132:unlock/-
34416 U132:use/-
15201 U132:user/-
35019 U132:using/-
1179 U132:want/-
12159 U132:what/-
19008 U132:williamgarcia/-
16857 U132:williams/-
12618 U132:with/-
30258 U132:yes/-
43389 U132:you/-
9693 U132:your/-
2466 U133:./.
39141 U133:1789234081731234897/-
3051 U133:_B+1/_B+1
24255 U133:ab/-
22194 U133:abcd/-
21996 U133:abcdef/-
45378 U133:able/-
26955 U133:about/-
42057 U133:access/-
23283 U133:account/-
42480 U133:and/-
41373 U133:be/-
23814 U133:beck/-
18504 U133:brown/-
14355 U133:but/-
33561 U133:call/-
10035 U133:can't/-
36999 U133:cannot/-
24444 U133:cd/-
28989 U133:chaan/-
27558 U133:check/-
38862 U133:code/-
6093 U133:daniel/-
23670 U133:david/-
21843 U133:davidbeck/-
29133 U133:deson/-
31878 U133:do/-
11421 U133:don't/-
7695 U133:duy/-
24651 U133:ef/-
22383 U133:efghj/-
34695 U133:email/-
27954 U133:for/-
39537 U133:forget/-
40230 U133:forgets/-
40698 U133:forgot/-
12168 U133:happened/-
43974 U133:have/-
44685 U133:having/-
5103 U133:help/-
6282 U133:hernandez/-
8775 U133:i/-
15210 U133:id/-
36324 U133:in/-
3879 U133:is/-
31500 U133:it/-
32994 U133:its/-
21231 U133:jackson/-
15993 U133:jam/-
25731 U133:jamj/-
15444 U133:jamjohnson/-
16578 U133:joh/-
16137 U133:johnson/-
11610 U133:known/-
29826 U133:lee/-
41580 U133:locked/-
36180 U133:logged/-
10179 U133:login/-
45225 U133:longer/-
7002 U133:lopez/-
8865 U133:lost/-
13788 U133:many/-
5364 U133:me/-
10638 U133:michael/-
4185 U133:micheal/-
3321 U133:my/-
3573 U133:name/-
9342 U133:need/-
7506 U133:nguyen/-
45090 U133:no/-
26559 U133:not/-
35856 U133:now/-
25920 U133:ohn/-
35703 U133:ok/-
22590 U133:oqei/-
1980 U133:password/-
23193 U133:paul.pogba/-
25146 U133:paul/-
23040 U133:paulpogba/-
34893 U133:phone/-
4797 U133:please/-
25290 U133:pogba/-
39951 U133:remember/-
1584 U133:reset/-
28422 U133:ronaldo/-
41049 U133:seem/-
42759 U133:sign/-
4491 U133:smith/-
34425 U133:sms/-
26127 U133:son/-
36657 U133:still/-
26748 U133:sure/-
7902 U133:thanh/-
32472 U133:this/-
6858 U133:thomas/-
14094 U133:times/-
1188 U133:to/-
13536 U133:today/-
12924 U133:tried/-
44118 U133:trouble/-
8442 U133:trung/-
13338 U133:ttx/-
31356 U133:unlock/-
34281 U133:use/-
15003 U133:user/-
702 U133:want/-
11862 U133:what/-
16722 U133:williams/-
12429 U133:with/-
43254 U133:you/-
9549 U133:your/-
1989 U134:./.
38997 U134:1789234081731234897/-
2475 U134:_B+1/_B+1
3060 U134:_B+2/_B+2
24138 U134:ab/-
22077 U134:abcd/-
21924 U134:abcdef/-
45234 U134:able/-
26757 U134:about/-
43668 U134:access/-
27207 U134:account/-
42408 U134:and/-
41184 U134:be/-
23679 U134:beck/-
14103 U134:but/-
34902 U134:call/-
14607 U134:can't/-
36927 U134:cannot/-
24264 U134:cd/-
28872 U134:chaan/-
27477 U134:check/-
5949 U134:daniel/-
23553 U134:david/-
21771 U134:davidbeck/-
28998 U134:deson/-
32688 U134:do/-
32787 U134:don't/-
7515 U134:duy/-
24453 U134:ef/-
22203 U134:efghj/-
34623 U134:email/-
27801 U134:for/-
40617 U134:forgot/-
11871 U134:happened/-
44604 U134:having/-
4806 U134:help/-
6102 U134:hernandez/-
9081 U134:i/-
15012 U134:id/-
36189 U134:in/-
3582 U134:is/-
31365 U134:it/-
32922 U134:its/-
15876 U134:jam/-
25614 U134:jamj/-
15219 U134:jamjohnson/-
16461 U134:joh/-
16002 U134:johnson/-
11430 U134:known/-
41382 U134:locked/-
10044 U134:login/-
45099 U134:longer/-
6867 U134:lopez/-
8784 U134:lost/-
13545 U134:many/-
5112 U134:me/-
3888 U134:micheal/-
5616 U134:my/-
3330 U134:name/-
9216 U134:need/-
7389 U134:nguyen/-
31887 U134:not/-
35712 U134:now/-
25740 U134:ohn/-
22392 U134:oqei/-
1593 U134:password/-
23121 U134:paul.pogba/-
25029 U134:paul/-
22968 U134:paulpogba/-
34776 U134:phone/-
4500 U134:please/-
25155 U134:pogba/-
39879 U134:remember/-
1197 U134:reset/-
28341 U134:ronaldo/-
40977 U134:seem/-
42615 U134:sign/-
4194 U134:smith/-
34290 U134:sms/-
25929 U134:son/-
26568 U134:sure/-
7704 U134:thanh/-
32382 U134:this/-
6741 U134:thomas/-
13797 U134:times/-
711 U134:to/-
13347 U134:today/-
43983 U134:trouble/-
8361 U134:trung/-
13149 U134:ttx/-
31230 U134:unlock/-
34164 U134:use/-
14886 U134:user/-
31149 U134:want/-
11619 U134:what/-
16587 U134:williams/-
12177 U134:with/-
9351 U134:your/-
108 U13:-
2079 U13:.
2574 U13:_B+1
5994 U13:name
117 U14:-
1683 U14:.
2088 U14:_B+1
2583 U14:_B+2
5895 U14:name
1296 U15:-/-
6345 U15:-/name
819 U15:_B-1/-
18558 U15:_B-1/name
126 U15:_B-2/_B-1
6633 U15:name/-
6507 U15:name/name
828 U16:-/-
2592 U16:-/.
6165 U16:-/name
135 U16:_B-1/-
44937 U16:_B-1/.
18405 U16:_B-1/name
6516 U16:name/-
18702 U16:name/.
6354 U16:name/name
144 U17:-/-
2097 U17:-/.
6003 U17:-/name
2601 U17:./_B+1
6363 U17:name/-
18567 U17:name/.
6174 U17:name/name
153 U18:-/-
1692 U18:-/.
5904 U18:-/name
2106 U18:./_B+1
2610 U18:_B+1/_B+2
6183 U18:name/-
18414 U18:name/.
6012 U18:name/name
837 U20:_B-1/_B-1
162 U20:_B-2/_B-2
24714 U20:ab/-
22653 U20:abcd/-
45666 U20:able/-
27396 U20:about/-
42273 U20:access/-
23454 U20:account/-
42822 U20:and/-
41760 U20:be/-
28539 U20:beck/-
14778 U20:but/-
34038 U20:call/-
10359 U20:can't/-
24885 U20:cd/-
29313 U20:chaan/-
27864 U20:check/-
39195 U20:code/-
43434 U20:could/-
6525 U20:daniel/name
23994 U20:david/-
29421 U20:deson/-
32085 U20:do/-
11961 U20:don't/-
8136 U20:duy/-
22824 U20:efghj/-
21411 U20:eli/-
33948 U20:email/-
28215 U20:for/-
39735 U20:forget/-
40419 U20:forgets/-
40878 U20:forgot/-
12663 U20:happened/-
44298 U20:have/-
44883 U20:having/-
3672 U20:hello/-
5679 U20:help/-
11304 U20:hernandez/-
6642 U20:hernandez/name
10836 U20:i'm/-
1305 U20:i/-
15705 U20:id/-
43083 U20:in/-
4590 U20:is/-
35910 U20:it's/-
32265 U20:it/-
16317 U20:jam/-
26190 U20:jamj/-
28089 U20:jamjohnson/-
16902 U20:joh/-
28773 U20:johnson/-
12258 U20:known/-
30123 U20:lee/name
30015 U20:linda/name
41868 U20:locked/-
36504 U20:logged/-
10467 U20:login/-
45558 U20:longer/-
7290 U20:lopez/name
9135 U20:lost/-
14436 U20:many/-
5805 U20:me/-
10953 U20:michael/-
4896 U20:micheal/-
3978 U20:my/-
4284 U20:name/-
9747 U20:need/-
7965 U20:nguyen/-
31050 U20:no/-
27036 U20:not/-
26361 U20:ohn/-
30888 U20:ok/-
30969 U20:okay/-
9423 U20:password/-
25470 U20:paul/-
33741 U20:phone/-
5445 U20:please/-
40122 U20:remember/-
2619 U20:reset/-
18711 U20:robert/name
28647 U20:ronaldo/-
41454 U20:seem/-
35406 U20:send/-
43020 U20:sign/-
5193 U20:smith/-
33867 U20:sms/-
36828 U20:still/-
27261 U20:sure/-
8244 U20:thanh/-
7182 U20:thomas/name
14661 U20:times/-
2115 U20:to/-
14184 U20:today/-
13221 U20:tried/-
44415 U20:trouble/-
8622 U20:trung/-
13887 U20:ttx/-
31680 U20:unlock/-
34524 U20:use/-
15507 U20:user/-
35118 U20:using/-
1701 U20:want/-
12492 U20:what/-
12771 U20:with/-
30807 U20:yes/-
43551 U20:you/-
9864 U20:your/-
37251 U21:1/-
38322 U21:1012/-
38754 U21:11212112/-
37431 U21:12/-
37602 U21:123/-
37746 U21:1234/-
37890 U21:12345/-
38466 U21:1544/-
38610 U21:154422/-
39312 U21:1789234081731234897/-
38178 U21:21341/-
38034 U21:54321/-
171 U21:_B-1/_B-1
24525 U21:ab/-
22464 U21:abcd/-
17433 U21:abcdef/-
17091 U21:abcdefghjklmn/-
17577 U21:abcdefghjoqei/-
45567 U21:able/-
27270 U21:about/-
42192 U21:access/-
23391 U21:account/-
42678 U21:and/-
20484 U21:anthony.thomas/-
41634 U21:be/-
24003 U21:beck/-
18720 U21:brown/name
14670 U21:but/-
33750 U21:call/-
10233 U21:can't/-
37107 U21:cannot/-
24723 U21:cd/-
29187 U21:chaan/-
20340 U21:chaandeson/-
27711 U21:check/-
19332 U21:chrmiller/-
39060 U21:code/-
43308 U21:could/-
19764 U21:danhernandez/-
6372 U21:daniel/name
23868 U21:david/-
17289 U21:davidbeck/-
18900 U21:davidjones/-
29322 U21:deson/-
32013 U21:do/-
11700 U21:don't/-
7974 U21:duy/-
24894 U21:ef/-
22662 U21:efghj/-
21285 U21:eli/-
21060 U21:elijackson/-
33390 U21:email/-
28098 U21:for/-
39654 U21:forget/-
40347 U21:forgets/-
40815 U21:forgot/-
12501 U21:happened/-
44172 U21:have/-
44811 U21:having/-
3411 U21:hello/-
5454 U21:help/-
11286 U21:hernandez/-
6534 U21:hernandez/name
10701 U21:i'm/-
846 U21:i/-
15516 U21:id/-
36513 U21:in/-
4293 U21:is/-
35775 U21:it's/-
31689 U21:it/-
33102 U21:its/-
21420 U21:jackson/-
16191 U21:jam/-
26001 U21:jamj/-
15714 U21:jamjohnson/-
20196 U21:jenwilson/-
16776 U21:joh/-
16326 U21:johnson/-
18153 U21:johwilliams/-
19476 U21:jpshep.martinez/-
11970 U21:known/-
30024 U21:lee/name
20772 U21:linda.lee/-
29880 U21:linda/name
41769 U21:locked/-
36378 U21:logged/-
10368 U21:login/-
45432 U21:longer/-
7191 U21:lopez/name
9000 U21:lost/-
14193 U21:many/-
20916 U21:mark.moore/-
19188 U21:maryroddiguez/-
20052 U21:matgonzalez/-
5688 U21:me/-
10845 U21:michael/-
18009 U21:micheal.smith/-
4599 U21:micheal/-
3681 U21:my/-
3987 U21:name/-
9612 U21:need/-
7776 U21:nguyen/-
30726 U21:no/-
26829 U21:not/-
36027 U21:now/-
26199 U21:ohn/-
30438 U21:ok/-
30582 U21:okay/-
22833 U21:oqei/-
2628 U21:password/-
20628 U21:patriciataylor/-
17865 U21:paul.pogba/-
25344 U21:paul/-
17721 U21:paulpogba/-
33615 U21:phone/-
5202 U21:please/-
25479 U21:pogba/-
40059 U21:remember/-
2124 U21:reset/-
19620 U21:richarddavis/-
18576 U21:robert/name
18315 U21:robertbrown/-
28548 U21:ronaldo/-
41256 U21:seem/-
35334 U21:send/-
42948 U21:sign/-
4905 U21:smith/-
33246 U21:sms/-
26370 U21:son/-
36765 U21:still/-
27045 U21:sure/-
8145 U21:thanh/-
32589 U21:this/-
19908 U21:thomas.lopez/-
7056 U21:thomas/name
14445 U21:times/-
1710 U21:to/-
13896 U21:today/-
13068 U21:tried/-
44307 U21:trouble/-
8559 U21:trung/-
13626 U21:ttx/-
31554 U21:unlock/-
34461 U21:use/-
15291 U21:user/-
35055 U21:using/-
1314 U21:want/-
12267 U21:what/-
19044 U21:williamgarcia/-
16911 U21:williams/-
12672 U21:with/-
30294 U21:yes/-
43443 U21:you/-
9756 U21:your/-
2637 U22:./.
37179 U22:1/-
38250 U22:1012/-
38682 U22:11212112/-
37323 U22:12/-
37530 U22:123/-
37674 U22:1234/-
37818 U22:12345/-
38394 U22:1544/-
38538 U22:154422/-
39204 U22:1789234081731234897/-
38106 U22:21341/-
37962 U22:54321/-
24327 U22:ab/-
22266 U22:abcd/-
17361 U22:abcdef/-
17019 U22:abcdefghjklmn/-
17505 U22:abcdefghjoqei/-
45441 U22:able/-
27054 U22:about/-
42111 U22:access/-
23319 U22:account/-
42534 U22:and/-
20412 U22:anthony.thomas/-
41463 U22:be/-
23877 U22:beck/-
18585 U22:brown/name
14454 U22:but/-
33624 U22:call/-
10098 U22:can't/-
37035 U22:cannot/-
24534 U22:cd/-
29052 U22:chaan/-
20268 U22:chaandeson/-
27612 U22:check/-
19260 U22:chrmiller/-
38916 U22:code/-
43173 U22:could/-
19692 U22:danhernandez/-
6192 U22:daniel/name
23733 U22:david/-
17217 U22:davidbeck/-
18828 U22:davidjones/-
29196 U22:deson/-
31932 U22:do/-
11493 U22:don't/-
7785 U22:duy/-
24732 U22:ef/-
22473 U22:efghj/-
21150 U22:eli/-
20988 U22:elijackson/-
33318 U22:email/-
27999 U22:for/-
39573 U22:forget/-
40266 U22:forgets/-
40743 U22:forgot/-
12276 U22:happened/-
44037 U22:have/-
44730 U22:having/-
3204 U22:hello/-
5211 U22:help/-
11259 U22:hernandez/-
6381 U22:hernandez/name
10557 U22:i'm/-
180 U22:i/-
15300 U22:id/-
36387 U22:in/-
3996 U22:is/-
35586 U22:it's/-
31563 U22:it/-
33030 U22:its/-
21294 U22:jackson/-
16056 U22:jam/-
25803 U22:jamj/-
15525 U22:jamjohnson/-
20124 U22:jenwilson/-
16641 U22:joh/-
16200 U22:johnson/-
18081 U22:johwilliams/-
19404 U22:jpshep.martinez/-
11709 U22:known/-
29889 U22:lee/name
20700 U22:linda.lee/-
29745 U22:linda/name
41643 U22:locked/-
36243 U22:logged/-
10242 U22:login/-
45297 U22:longer/-
7065 U22:lopez/name
8910 U22:lost/-
13905 U22:many/-
20844 U22:mark.moore/-
19116 U22:maryroddiguez/-
19980 U22:matgonzalez/-
5463 U22:me/-
10710 U22:michael/-
17937 U22:micheal.smith/-
4302 U22:micheal/-
3420 U22:my/-
3690 U22:name/-
9432 U22:need/-
7578 U22:nguyen/-
30654 U22:no/-
26631 U22:not/-
35919 U22:now/-
26010 U22:ohn/-
30366 U22:ok/-
30510 U22:okay/-
22671 U22:oqei/-
2133 U22:password/-
20556 U22:patriciataylor/-
17793 U22:paul.pogba/-
25209 U22:paul/-
17649 U22:paulpogba/-
33480 U22:phone/-
4914 U22:please/-
25353 U22:pogba/-
39987 U22:remember/-
1719 U22:reset/-
19548 U22:richarddavis/-
18423 U22:robert/name
18243 U22:robertbrown/-
28458 U22:ronaldo/-
41103 U22:seem/-
35253 U22:send/-
42831 U22:sign/-
4608 U22:smith/-
33174 U22:sms/-
26208 U22:son/-
36693 U22:still/-
26838 U22:sure/-
7983 U22:thanh/-
32517 U22:this/-
19836 U22:thomas.lopez/-
6921 U22:thomas/name
14202 U22:times/-
1323 U22:to/-
13635 U22:today/-
12969 U22:tried/-
44181 U22:trouble/-
8487 U22:trung/-
13419 U22:ttx/-
31419 U22:unlock/-
34344 U22:use/-
15075 U22:user/-
34983 U22:using/-
855 U22:want/-
11979 U22:what/-
18972 U22:williamgarcia/-
16785 U22:williams/-
12510 U22:with/-
30222 U22:yes/-
43317 U22:you/-
9621 U22:your/-
2142 U23:./.
39069 U23:1789234081731234897/-
2646 U23:_B+1/_B+1
24183 U23:ab/-
22122 U23:abcd/-
21960 U23:abcdef/-
45306 U23:able/-
26847 U23:about/-
42021 U23:access/-
23247 U23:account/-
42444 U23:and/-
41265 U23:be/-
23742 U23:beck/-
18432 U23:brown/name
14211 U23:but/-
33489 U23:call/-
9963 U23:can't/-
36963 U23:cannot/-
24336 U23:cd/-
28917 U23:chaan/-
27522 U23:check/-
38826 U23:code/-
6021 U23:daniel/name
23598 U23:david/-
21807 U23:davidbeck/-
29061 U23:deson/-
31806 U23:do/-
11349 U23:don't/-
7587 U23:duy/-
24543 U23:ef/-
22275 U23:efghj/-
34659 U23:email/-
27873 U23:for/-
39501 U23:forget/-
40194 U23:forgets/-
40662 U23:forgot/-
11988 U23:happened/-
43902 U23:have/-
44649 U23:having/-
4923 U23:help/-
11232 U23:hernandez/-
6201 U23:hernandez/name
8703 U23:i/-
15084 U23:id/-
36252 U23:in/-
3699 U23:is/-
31428 U23:it/-
32958 U23:its/-
21159 U23:jackson/-
15921 U23:jam/-
25659 U23:jamj/-
15309 U23:jamjohnson/-
16506 U23:joh/-
16065 U23:johnson/-
11502 U23:known/-
29754 U23:lee/name
41472 U23:locked/-
36108 U23:logged/-
10107 U23:login/-
45153 U23:longer/-
6930 U23:lopez/name
8829 U23:lost/-
13644 U23:many/-
5220 U23:me/-
10566 U23:michael/-
4005 U23:micheal/-
3213 U23:my/-
3429 U23:name/-
9270 U23:need/-
7434 U23:nguyen/-
45018 U23:no/-
26487 U23:not/-
35784 U23:now/-
25812 U23:ohn/-
35595 U23:ok/-
22482 U23:oqei/-
1728 U23:password/-
23157 U23:paul.pogba/-
25074 U23:paul/-
23004 U23:paulpogba/-
34821 U23:phone/-
4617 U23:please/-
25218 U23:pogba/-
39915 U23:remember/-
1332 U23:reset/-
28386 U23:ronaldo/-
41013 U23:seem/-
42687 U23:sign/-
4311 U23:smith/-
34353 U23:sms/-
26019 U23:son/-
36621 U23:still/-
26640 U23:sure/-
7794 U23:thanh/-
32436 U23:this/-
6786 U23:thomas/name
13914 U23:times/-
864 U23:to/-
13428 U23:today/-
12888 U23:tried/-
44046 U23:trouble/-
8406 U23:trung/-
13230 U23:ttx/-
31284 U23:unlock/-
34209 U23:use/-
14931 U23:user/-
189 U23:want/-
11718 U23:what/-
16650 U23:williams/-
12285 U23:with/-
43182 U23:you/-
9441 U23:your/-
1737 U24:./.
38925 U24:1789234081731234897/-
2151 U24:_B+1/_B+1
2655 U24:_B+2/_B+2
24102 U24:ab/-
22041 U24:abcd/-
21888 U24:abcdef/-
45162 U24:able/-
26649 U24:about/-
43632 U24:access/-
27063 U24:account/-
42372 U24:and/-
41112 U24:be/-
23607 U24:beck/-
13923 U24:but/-
34830 U24:call/-
14463 U24:can't/-
36891 U24:cannot/-
24192 U24:cd/-
28836 U24:chaan/-
27405 U24:check/-
5913 U24:daniel/name
23517 U24:david/-
21735 U24:davidbeck/-
28926 U24:deson/-
32652 U24:do/-
32751 U24:don't/-
7443 U24:duy/-
24345 U24:ef/-
22131 U24:efghj/-
34587 U24:email/-
27720 U24:for/-
40581 U24:forgot/-
11727 U24:happened/-
44568 U24:having/-
4626 U24:help/-
11205 U24:hernandez/-
6030 U24:hernandez/name
9009 U24:i/-
14940 U24:id/-
36117 U24:in/-
3438 U24:is/-
31293 U24:it/-
32886 U24:its/-
15840 U24:jam/-
25578 U24:jamj/-
15093 U24:jamjohnson/-
16425 U24:joh/-
15930 U24:johnson/-
11358 U24:known/-
41274 U24:locked/-
9972 U24:login/-
45027 U24:longer/-
6795 U24:lopez/name
8712 U24:lost/-
13437 U24:many/-
4932 U24:me/-
3708 U24:micheal/-
5472 U24:my/-
3222 U24:name/-
9144 U24:need/-
7353 U24:nguyen/-
31815 U24:not/-
35604 U24:now/-
25668 U24:ohn/-
22284 U24:oqei/-
1341 U24:password/-
23085 U24:paul.pogba/-
24993 U24:paul/-
22932 U24:paulpogba/-
34740 U24:phone/-
4320 U24:please/-
25083 U24:pogba/-
39843 U24:remember/-
873 U24:reset/-
28305 U24:ronaldo/-
40941 U24:seem/-
42543 U24:sign/-
4014 U24:smith/-
34218 U24:sms/-
25821 U24:son/-
26496 U24:sure/-
7596 U24:thanh/-
32346 U24:this/-
6705 U24:thomas/name
13653 U24:times/-
198 U24:to/-
13239 U24:today/-
43911 U24:trouble/-
8325 U24:trung/-
13077 U24:ttx/-
31194 U24:unlock/-
34128 U24:use/-
14850 U24:user/-
31113 U24:want/-
11511 U24:what/-
16515 U24:williams/-
11997 U24:with/-
9279 U24:your/-
1350 U30:-
882 U30:_B-1
207 U30:_B-2
891 U31:-
216 U31:_B-1
37440 U31:personId
225 U32:-
2664 U32:.
37332 U32:personId
234 U33:-
2160 U33:.
2673 U33:_B+1
243 U34:-
1746 U34:.
2169 U34:_B+1
2682 U34:_B+2
1359 U35:-/-
900 U35:_B-1/-
37449 U35:_B-1/personId
252 U35:_B-2/_B-1
909 U36:-/-
2691 U36:-/.
261 U36:_B-1/-
44946 U36:_B-1/.
37341 U36:_B-1/personId
37458 U36:personId/.
270 U37:-/-
2178 U37:-/.
2700 U37:./_B+1
37350 U37:personId/.
279 U38:-/-
1755 U38:-/.
2187 U38:./_B+1
2709 U38:_B+1/_B+2
918 U40:_B-1/_B-1
288 U40:_B-2/_B-2
24741 U40:ab/-
22680 U40:abcd/-
45675 U40:able/-
27414 U40:about/-
42282 U40:access/-
23463 U40:account/-
42840 U40:and/-
41778 U40:be/-
28557 U40:beck/-
14787 U40:but/-
34047 U40:call/-
10377 U40:can't/-
24903 U40:cd/-
29331 U40:chaan/-
27882 U40:check/-
39213 U40:code/-
43452 U40:could/-
6543 U40:daniel/-
24012 U40:david/-
29430 U40:deson/-
32094 U40:do/-
12006 U40:don't/-
8154 U40:duy/-
22842 U40:efghj/-
21429 U40:eli/-
33957 U40:email/-
28224 U40:for/-
39744 U40:forget/-
40428 U40:forgets/-
40887 U40:forgot/-
12681 U40:happened/-
44316 U40:have/-
44892 U40:having/-
3717 U40:hello/-
5697 U40:help/-
6651 U40:hernandez/-
10854 U40:i'm/-
1368 U40:i/-
15723 U40:id/-
43092 U40:in/-
4635 U40:is/-
35928 U40:it's/-
32274 U40:it/-
16335 U40:jam/-
26217 U40:jamj/-
28107 U40:jamjohnson/-
16920 U40:joh/-
28782 U40:johnson/-
12294 U40:known/-
30132 U40:lee/-
30033 U40:linda/-
41877 U40:locked/-
36522 U40:logged/-
10476 U40:login/-
45576 U40:longer/-
7299 U40:lopez/-
9153 U40:lost/-
14472 U40:many/-
5814 U40:me/-
10962 U40:michael/-
4941 U40:micheal/-
4023 U40:my/-
4329 U40:name/-
9765 U40:need/-
7992 U40:nguyen/-
31059 U40:no/-
27072 U40:not/-
26379 U40:ohn/-
30897 U40:ok/-
30978 U40:okay/-
9450 U40:password/-
25488 U40:paul/-
33759 U40:phone/-
5481 U40:please/-
40131 U40:remember/-
2718 U40:reset/-
18729 U40:robert/-
28656 U40:ronaldo/-
41481 U40:seem/-
35415 U40:send/-
43029 U40:sign/-
5229 U40:smith/-
33876 U40:sms/-
36837 U40:still/-
27279 U40:sure/-
8253 U40:thanh/-
7200 U40:thomas/-
14679 U40:times/-
2196 U40:to/-
14220 U40:today/-
13248 U40:tried/-
44424 U40:trouble/-
8631 U40:trung/-
13932 U40:ttx/-
31698 U40:unlock/-
34533 U40:use/-
15534 U40:user/-
35127 U40:using/-
1764 U40:want/-
12519 U40:what/-
12780 U40:with/-
30816 U40:yes/-
43560 U40:you/-
9873 U40:your/-
37260 U41:1/-
38331 U41:1012/-
38763 U41:11212112/-
37467 U41:12/personId
37611 U41:123/-
37755 U41:1234/-
37899 U41:12345/-
38475 U41:1544/-
38619 U41:154422/-
39321 U41:1789234081731234897/-
38187 U41:21341/-
38043 U41:54321/-
297 U41:_B-1/_B-1
24552 U41:ab/-
22491 U41:abcd/-
17442 U41:abcdef/-
17100 U41:abcdefghjklmn/-
17586 U41:abcdefghjoqei/-
45585 U41:able/-
27288 U41:about/-
42201 U41:access/-
23400 U41:account/-
42696 U41:and/-
20493 U41:anthony.thomas/-
41652 U41:be/-
24021 U41:beck/-
18738 U41:brown/-
14688 U41:but/-
33768 U41:call/-
10251 U41:can't/-
37116 U41:cannot/-
24750 U41:cd/-
29205 U41:chaan/-
20349 U41:chaandeson/-
27729 U41:check/-
19341 U41:chrmiller/-
39078 U41:code/-
43326 U41:could/-
19773 U41:danhernandez/-
6390 U41:daniel/-
23886 U41:david/-
17298 U41:davidbeck/-
18909 U41:davidjones/-
29340 U41:deson/-
32022 U41:do/-
11736 U41:don't/-
8001 U41:duy/-
24912 U41:ef/-
22689 U41:efghj/-
21303 U41:eli/-
21069 U41:elijackson/-
33399 U41:email/-
28116 U41:for/-
39663 U41:forget/-
40356 U41:forgets/-
40824 U41:forgot/-
12528 U41:happened/-
44190 U41:have/-
44820 U41:having/-
3447 U41:hello/-
5490 U41:help/-
6552 U41:hernandez/-
10719 U41:i'm/-
927 U41:i/-
15543 U41:id/-
36531 U41:in/-
4338 U41:is/-
35793 U41:it's/-
31707 U41:it/-
33111 U41:its/-
21438 U41:jackson/-
16209 U41:jam/-
26028 U41:jamj/-
15732 U41:jamjohnson/-
20205 U41:jenwilson/-
16794 U41:joh/-
16344 U41:johnson/-
18162 U41:johwilliams/-
19485 U41:jpshep.martinez/-
12015 U41:known/-
30042 U41:lee/-
20781 U41:linda.lee/-
29898 U41:linda/-
41787 U41:locked/-
36396 U41:logged/-
10386 U41:login/-
45450 U41:longer/-
7209 U41:lopez/-
9018 U41:lost/-
14229 U41:many/-
20925 U41:mark.moore/-
19197 U41:maryroddiguez/-
20061 U41:matgonzalez/-
5706 U41:me/-
10863 U41:michael/-
18018 U41:micheal.smith/-
4644 U41:micheal/-
3726 U41:my/-
4032 U41:name/-
9630 U41:need/-
7803 U41:nguyen/-
30735 U41:no/-
26856 U41:not/-
36036 U41:now/-
26226 U41:ohn/-
30447 U41:ok/-
30591 U41:okay/-
22851 U41:oqei/-
2727 U41:password/-
20637 U41:patriciataylor/-
17874 U41:paul.pogba/-
25362 U41:paul/-
17730 U41:paulpogba/-
33633 U41:phone/-
5238 U41:please/-
25497 U41:pogba/-
40068 U41:remember/-
2205 U41:reset/-
19629 U41:richarddavis/-
18594 U41:robert/-
18324 U41:robertbrown/-
28566 U41:ronaldo/-
41283 U41:seem/-
35343 U41:send/-
42957 U41:sign/-
4950 U41:smith/-
33255 U41:sms/-
26388 U41:son/-
36774 U41:still/-
27081 U41:sure/-
8163 U41:thanh/-
32598 U41:this/-
19917 U41:thomas.lopez/-
7074 U41:thomas/-
14481 U41:times/-
1773 U41:to/-
13941 U41:today/-
13086 U41:tried/-
44325 U41:trouble/-
8568 U41:trung/-
13662 U41:ttx/-
31572 U41:unlock/-
34470 U41:use/-
15318 U41:user/-
35064 U41:using/-
1377 U41:want/-
12303 U41:what/-
19053 U41:williamgarcia/-
16929 U41:williams/-
12690 U41:with/-
30303 U41:yes/-
43461 U41:you/-
9774 U41:your/-
2736 U42:./.
37188 U42:1/-
38259 U42:1012/-
38691 U42:11212112/-
37359 U42:12/personId
37539 U42:123/-
37683 U42:1234/-
37827 U42:12345/-
38403 U42:1544/-
38547 U42:154422/-
39222 U42:1789234081731234897/-
38115 U42:21341/-
37971 U42:54321/-
24354 U42:ab/-
22293 U42:abcd/-
17370 U42:abcdef/-
17028 U42:abcdefghjklmn/-
17514 U42:abcdefghjoqei/-
45459 U42:able/-
27090 U42:about/-
42120 U42:access/-
23328 U42:account/-
42552 U42:and/-
20421 U42:anthony.thomas/-
41490 U42:be/-
23895 U42:beck/-
18603 U42:brown/-
14490 U42:but/-
33642 U42:call/-
10116 U42:can't/-
37044 U42:cannot/-
24561 U42:cd/-
29070 U42:chaan/-
20277 U42:chaandeson/-
27621 U42:check/-
19269 U42:chrmiller/-
38934 U42:code/-
43191 U42:could/-
19701 U42:danhernandez/-
6210 U42:daniel/-
23751 U42:david/-
17226 U42:davidbeck/-
18837 U42:davidjones/-
29214 U42:deson/-
31941 U42:do/-
11520 U42:don't/-
7812 U42:duy/-
24759 U42:ef/-
22500 U42:efghj/-
21168 U42:eli/-
20997 U42:elijackson/-
33327 U42:email/-
28008 U42:for/-
39582 U42:forget/-
40275 U42:forgets/-
40752 U42:forgot/-
12312 U42:happened/-
44055 U42:have/-
44739 U42:having/-
3231 U42:hello/-
5247 U42:help/-
6399 U42:hernandez/-
10575 U42:i'm/-
306 U42:i/-
15327 U42:id/-
36405 U42:in/-
4041 U42:is/-
35613 U42:it's/-
31581 U42:it/-
33039 U42:its/-
21312 U42:jackson/-
16074 U42:jam/-
25830 U42:jamj/-
15552 U42:jamjohnson/-
20133 U42:jenwilson/-
16659 U42:joh/-
16218 U42:johnson/-
18090 U42:johwilliams/-
19413 U42:jpshep.martinez/-
11745 U42:known/-
29907 U42:lee/-
20709 U42:linda.lee/-
29763 U42:linda/-
41661 U42:locked/-
36261 U42:logged/-
10260 U42:login/-
45315 U42:longer/-
7083 U42:lopez/-
8919 U42:lost/-
13950 U42:many/-
20853 U42:mark.moore/-
19125 U42:maryroddiguez/-
19989 U42:matgonzalez/-
5499 U42:me/-
10728 U42:michael/-
17946 U42:micheal.smith/-
4347 U42:micheal/-
3456 U42:my/-
3735 U42:name/-
9459 U42:need/-
7605 U42:nguyen/-
30663 U42:no/-
26658 U42:not/-
35937 U42:now/-
26037 U42:ohn/-
30375 U42:ok/-
30519 U42:okay/-
22698 U42:oqei/-
2214 U42:password/-
20565 U42:patriciataylor/-
17802 U42:paul.pogba/-
25227 U42:paul/-
17658 U42:paulpogba/-
33498 U42:phone/-
4959 U42:please/-
25371 U42:pogba/-
39996 U42:remember/-
1782 U42:reset/-
19557 U42:richarddavis/-
18441 U42:robert/-
18252 U42:robertbrown/-
28467 U42:ronaldo/-
41121 U42:seem/-
35262 U42:send/-
42849 U42:sign/-
4653 U42:smith/-
33183 U42:sms/-
26235 U42:son/-
36702 U42:still/-
26865 U42:sure/-
8010 U42:thanh/-
32526 U42:this/-
19845 U42:thomas.lopez/-
6939 U42:thomas/-
14238 U42:times/-
1386 U42:to/-
13671 U42:today/-
12978 U42:tried/-
44199 U42:trouble/-
8496 U42:trung/-
13446 U42:ttx/-
31437 U42:unlock/-
34362 U42:use/-
15102 U42:user/-
34992 U42:using/-
936 U42:want/-
12024 U42:what/-
18981 U42:williamgarcia/-
16803 U42:williams/-
12537 U42:with/-
30231 U42:yes/-
43335 U42:you/-
9639 U42:your/-
2223 U43:./.
39087 U43:1789234081731234897/-
2745 U43:_B+1/_B+1
24201 U43:ab/-
22140 U43:abcd/-
21969 U43:abcdef/-
45324 U43:able/-
26874 U43:about/-
42030 U43:access/-
23256 U43:account/-
42453 U43:and/-
41292 U43:be/-
23760 U43:beck/-
18450 U43:brown/-
14247 U43:but/-
33507 U43:call/-
9981 U43:can't/-
36972 U43:cannot/-
24363 U43:cd/-
28935 U43:chaan/-
27531 U43:check/-
38835 U43:code/-
6039 U43:daniel/-
23616 U43:david/-
21816 U43:davidbeck/-
29079 U43:deson/-
31824 U43:do/-
11367 U43:don't/-
7614 U43:duy/-
24570 U43:ef/-
22302 U43:efghj/-
34668 U43:email/-
27891 U43:for/-
39510 U43:forget/-
40203 U43:forgets/-
40671 U43:forgot/-
12033 U43:happened/-
43920 U43:have/-
44658 U43:having/-
4968 U43:help/-
6219 U43:hernandez/-
8721 U43:i/-
15111 U43:id/-
36270 U43:in/-
3744 U43:is/-
31446 U43:it/-
32967 U43:its/-
21177 U43:jackson/-
15939 U43:jam/-
25677 U43:jamj/-
15336 U43:jamjohnson/-
16524 U43:joh/-
16083 U43:johnson/-
11529 U43:known/-
29772 U43:lee/-
41499 U43:locked/-
36126 U43:logged/-
10125 U43:login/-
45171 U43:longer/-
6948 U43:lopez/-
8838 U43:lost/-
13680 U43:many/-
5256 U43:me/-
10584 U43:michael/-
4050 U43:micheal/-
3240 U43:my/-
3465 U43:name/-
9288 U43:need/-
7452 U43:nguyen/-
45036 U43:no/-
26505 U43:not/-
35802 U43:now/-
25839 U43:ohn/-
35622 U43:ok/-
22509 U43:oqei/-
1791 U43:password/-
23166 U43:paul.pogba/-
25092 U43:paul/-
23013 U43:paulpogba/-
34839 U43:phone/-
4662 U43:please/-
25236 U43:pogba/-
39924 U43:remember/-
1395 U43:reset/-
28395 U43:ronaldo/-
41022 U43:seem/-
42705 U43:sign/-
4356 U43:smith/-
34371 U43:sms/-
26046 U43:son/-
36630 U43:still/-
26667 U43:sure/-
7821 U43:thanh/-
32445 U43:this/-
6804 U43:thomas/-
13959 U43:times/-
945 U43:to/-
13455 U43:today/-
12897 U43:tried/-
44064 U43:trouble/-
8415 U43:trung/-
13257 U43:ttx/-
31302 U43:unlock/-
34227 U43:use/-
14949 U43:user/-
315 U43:want/-
11754 U43:what/-
16668 U43:williams/-
12321 U43:with/-
43200 U43:you/-
9468 U43:your/-
1800 U44:./.
38943 U44:1789234081731234897/-
2232 U44:_B+1/_B+1
2754 U44:_B+2/_B+2
24111 U44:ab/-
22050 U44:abcd/-
21897 U44:abcdef/-
45180 U44:able/-
26676 U44:about/-
43641 U44:access/-
27099 U44:account/-
42381 U44:and/-
41130 U44:be/-
23625 U44:beck/-
13968 U44:but/-
34848 U44:call/-
14499 U44:can't/-
36900 U44:cannot/-
24210 U44:cd/-
28845 U44:chaan/-
27423 U44:check/-
5922 U44:daniel/-
23526 U44:david/-
21744 U44:davidbeck/-
28944 U44:deson/-
32661 U44:do/-
32760 U44:don't/-
7461 U44:duy/-
24372 U44:ef/-
22149 U44:efghj/-
34596 U44:email/-
27738 U44:for/-
40590 U44:forgot/-
11763 U44:happened/-
44577 U44:having/-
4671 U44:help/-
6048 U44:hernandez/-
9027 U44:i/-
14958 U44:id/-
36135 U44:in/-
3474 U44:is/-
31311 U44:it/-
32895 U44:its/-
15849 U44:jam/-
25587 U44:jamj/-
15120 U44:jamjohnson/-
16434 U44:joh/-
15948 U44:johnson/-
11376 U44:known/-
41301 U44:locked/-
9990 U44:login/-
45045 U44:longer/-
6813 U44:lopez/-
8730 U44:lost/-
13464 U44:many/-
4977 U44:me/-
3753 U44:micheal/-
5508 U44:my/-
3249 U44:name/-
9162 U44:need/-
7362 U44:nguyen/-
31833 U44:not/-
35631 U44:now/-
25686 U44:ohn/-
22311 U44:oqei/-
1404 U44:password/-
23094 U44:paul.pogba/-
25002 U44:paul/-
22941 U44:paulpogba/-
34749 U44:phone/-
4365 U44:please/-
25101 U44:pogba/-
39852 U44:remember/-
954 U44:reset/-
28314 U44:ronaldo/-
40950 U44:seem/-
42561 U44:sign/-
4059 U44:smith/-
34236 U44:sms/-
25848 U44:son/-
26514 U44:sure/-
7623 U44:thanh/-
32355 U44:this/-
6714 U44:thomas/-
13689 U44:times/-
324 U44:to/-
13266 U44:today/-
43929 U44:trouble/-
8334 U44:trung/-
13095 U44:ttx/-
31203 U44:unlock/-
34137 U44:use/-
14859 U44:user/-
31122 U44:want/-
11538 U44:what/-
16533 U44:williams/-
12042 U44:with/-
9297 U44:your/-
333 U50:-/-
37368 U50:-/personId
2763 U50:./.
6228 U50:name/-
1413 U60:-
963 U60:_B-1
342 U60:_B-2
28125 U60:accountId
972 U61:-
351 U61:_B-1
15741 U61:accountId
360 U62:-
2772 U62:.
15561 U62:accountId
369 U63:-
2241 U63:.
2781 U63:_B+1
15345 U63:accountId
378 U64:-
1809 U64:.
2250 U64:_B+1
2790 U64:_B+2
15129 U64:accountId
1422 U65:-/-
15750 U65:-/accountId
981 U65:_B-1/-
17181 U65:_B-1/accountId
387 U65:_B-2/_B-1
28134 U65:accountId/-
990 U66:-/-
2799 U66:-/.
15570 U66:-/accountId
396 U66:_B-1/-
44955 U66:_B-1/.
17163 U66:_B-1/accountId
28017 U66:accountId/-
15759 U66:accountId/.
405 U67:-/-
2259 U67:-/.
15354 U67:-/accountId
2808 U67:./_B+1
27900 U67:accountId/-
15579 U67:accountId/.
414 U68:-/-
1818 U68:-/.
15138 U68:-/accountId
2268 U68:./_B+1
2817 U68:_B+1/_B+2
27747 U68:accountId/-
15363 U68:accountId/.
999 U70:_B-1/_B-1
423 U70:_B-2/_B-2
24768 U70:ab/-
22707 U70:abcd/-
45684 U70:able/-
27432 U70:about/-
42291 U70:access/-
23472 U70:account/-
42858 U70:and/-
41796 U70:be/-
28575 U70:beck/-
14796 U70:but/-
34056 U70:call/-
10395 U70:can't/-
24921 U70:cd/-
29349 U70:chaan/-
27909 U70:check/-
39231 U70:code/-
43470 U70:could/-
6561 U70:daniel/-
24030 U70:david/-
29439 U70:deson/-
32103 U70:do/-
12051 U70:don't/-
8172 U70:duy/-
22860 U70:efghj/-
21447 U70:eli/-
33966 U70:email/-
28233 U70:for/-
39753 U70:forget/-
40437 U70:forgets/-
40896 U70:forgot/-
12699 U70:happened/-
44334 U70:have/-
44901 U70:having/-
3762 U70:hello/-
5715 U70:help/-
6660 U70:hernandez/-
10872 U70:i'm/-
1431 U70:i/-
15768 U70:id/-
43101 U70:in/-
4680 U70:is/-
35946 U70:it's/-
32283 U70:it/-
16353 U70:jam/-
26244 U70:jamj/-
28143 U70:jamjohnson/accountId
16938 U70:joh/-
28791 U70:johnson/-
12330 U70:known/-
30141 U70:lee/-
30051 U70:linda/-
41886 U70:locked/-
36540 U70:logged/-
10485 U70:login/-
45594 U70:longer/-
7308 U70:lopez/-
9171 U70:lost/-
14508 U70:many/-
5823 U70:me/-
10971 U70:michael/-
4986 U70:micheal/-
4068 U70:my/-
4374 U70:name/-
9783 U70:need/-
8019 U70:nguyen/-
31068 U70:no/-
27108 U70:not/-
26397 U70:ohn/-
30906 U70:ok/-
30987 U70:okay/-
9477 U70:password/-
25506 U70:paul/-
33777 U70:phone/-
5517 U70:please/-
40140 U70:remember/-
2826 U70:reset/-
18747 U70:robert/-
28665 U70:ronaldo/-
41508 U70:seem/-
35424 U70:send/-
43038 U70:sign/-
5265 U70:smith/-
33885 U70:sms/-
36846 U70:still/-
27297 U70:sure/-
8262 U70:thanh/-
7218 U70:thomas/-
14697 U70:times/-
2277 U70:to/-
14256 U70:today/-
13275 U70:tried/-
44433 U70:trouble/-
8640 U70:trung/-
13977 U70:ttx/-
31716 U70:unlock/-
34542 U70:use/-
15588 U70:user/-
35136 U70:using/-
1827 U70:want/-
12546 U70:what/-
12789 U70:with/-
30825 U70:yes/-
43569 U70:you/-
9882 U70:your/-
37269 U71:1/-
38340 U71:1012/-
38772 U71:11212112/-
37476 U71:12/-
37620 U71:123/-
37764 U71:1234/-
37908 U71:12345/-
38484 U71:1544/-
38628 U71:154422/-
39330 U71:1789234081731234897/-
38196 U71:21341/-
38052 U71:54321/-
432 U71:_B-1/_B-1
24579 U71:ab/-
22518 U71:abcd/-
17451 U71:abcdef/-
17109 U71:abcdefghjklmn/-
17595 U71:abcdefghjoqei/-
45603 U71:able/-
27306 U71:about/-
42210 U71:access/-
23409 U71:account/-
42714 U71:and/-
20502 U71:anthony.thomas/-
41670 U71:be/-
24039 U71:beck/-
18756 U71:brown/-
14706 U71:but/-
33786 U71:call/-
10269 U71:can't/-
37125 U71:cannot/-
24777 U71:cd/-
29223 U71:chaan/-
20358 U71:chaandeson/accountId
27756 U71:check/-
19350 U71:chrmiller/accountId
39096 U71:code/-
43344 U71:could/-
19782 U71:danhernandez/accountId
6408 U71:daniel/-
23904 U71:david/-
17307 U71:davidbeck/-
18918 U71:davidjones/accountId
29358 U71:deson/-
32031 U71:do/-
11772 U71:don't/-
8028 U71:duy/-
24930 U71:ef/-
22716 U71:efghj/-
21321 U71:eli/-
21078 U71:elijackson/accountId
33408 U71:email/-
28152 U71:for/-
39672 U71:forget/-
40365 U71:forgets/-
40833 U71:forgot/-
12555 U71:happened/-
44208 U71:have/-
44829 U71:having/-
3483 U71:hello/-
5526 U71:help/-
6570 U71:hernandez/-
10737 U71:i'm/-
1008 U71:i/-
15597 U71:id/-
36549 U71:in/-
4383 U71:is/-
35811 U71:it's/-
31725 U71:it/-
33120 U71:its/-
21456 U71:jackson/-
16227 U71:jam/-
26055 U71:jamj/-
15777 U71:jamjohnson/accountId
20214 U71:jenwilson/accountId
16812 U71:joh/-
16362 U71:johnson/-
18171 U71:johwilliams/accountId
19494 U71:jpshep.martinez/-
12060 U71:known/-
30060 U71:lee/-
20790 U71:linda.lee/-
29916 U71:linda/-
41805 U71:locked/-
36414 U71:logged/-
10404 U71:login/-
45468 U71:longer/-
7227 U71:lopez/-
9036 U71:lost/-
14265 U71:many/-
20934 U71:mark.moore/-
19206 U71:maryroddiguez/accountId
20070 U71:matgonzalez/accountId
5724 U71:me/-
10881 U71:michael/-
18027 U71:micheal.smith/-
4689 U71:micheal/-
3771 U71:my/-
4077 U71:name/-
9648 U71:need/-
7830 U71:nguyen/-
30744 U71:no/-
26883 U71:not/-
36045 U71:now/-
26253 U71:ohn/-
30456 U71:ok/-
30600 U71:okay/-
22869 U71:oqei/-
2835 U71:password/-
20646 U71:patriciataylor/accountId
17883 U71:paul.pogba/-
25380 U71:paul/-
17739 U71:paulpogba/-
33651 U71:phone/-
5274 U71:please/-
25515 U71:pogba/-
40077 U71:remember/-
2286 U71:reset/-
19638 U71:richarddavis/accountId
18612 U71:robert/-
18333 U71:robertbrown/accountId
28584 U71:ronaldo/-
41310 U71:seem/-
35352 U71:send/-
42966 U71:sign/-
4995 U71:smith/-
33264 U71:sms/-
26406 U71:son/-
36783 U71:still/-
27117 U71:sure/-
8181 U71:thanh/-
32607 U71:this/-
19926 U71:thomas.lopez/-
7092 U71:thomas/-
14517 U71:times/-
1836 U71:to/-
13986 U71:today/-
13104 U71:tried/-
44343 U71:trouble/-
8577 U71:trung/-
13698 U71:ttx/-
31590 U71:unlock/-
34479 U71:use/-
15372 U71:user/-
35073 U71:using/-
1440 U71:want/-
12339 U71:what/-
19062 U71:williamgarcia/accountId
16947 U71:williams/-
12708 U71:with/-
30312 U71:yes/-
43479 U71:you/-
9792 U71:your/-
2844 U72:./.
37197 U72:1/-
38268 U72:1012/-
38700 U72:11212112/-
37377 U72:12/-
37548 U72:123/-
37692 U72:1234/-
37836 U72:12345/-
38412 U72:1544/-
38556 U72:154422/-
39240 U72:1789234081731234897/-
38124 U72:21341/-
37980 U72:54321/-
24381 U72:ab/-
22320 U72:abcd/-
17379 U72:abcdef/-
17037 U72:abcdefghjklmn/-
17523 U72:abcdefghjoqei/-
45477 U72:able/-
27126 U72:about/-
42129 U72:access/-
23337 U72:account/-
42570 U72:and/-
20430 U72:anthony.thomas/-
41517 U72:be/-
23913 U72:beck/-
18621 U72:brown/-
14526 U72:but/-
33660 U72:call/-
10134 U72:can't/-
37053 U72:cannot/-
24588 U72:cd/-
29088 U72:chaan/-
20286 U72:chaandeson/accountId
27630 U72:check/-
19278 U72:chrmiller/accountId
38952 U72:code/-
43209 U72:could/-
19710 U72:danhernandez/accountId
6237 U72:daniel/-
23769 U72:david/-
17235 U72:davidbeck/-
18846 U72:davidjones/accountId
29232 U72:deson/-
31950 U72:do/-
11547 U72:don't/-
7839 U72:duy/-
24786 U72:ef/-
22527 U72:efghj/-
21186 U72:eli/-
21006 U72:elijackson/accountId
33336 U72:email/-
28026 U72:for/-
39591 U72:forget/-
40284 U72:forgets/-
40761 U72:forgot/-
12348 U72:happened/-
44073 U72:have/-
44748 U72:having/-
3258 U72:hello/-
5283 U72:help/-
6417 U72:hernandez/-
10593 U72:i'm/-
441 U72:i/-
15381 U72:id/-
36423 U72:in/-
4086 U72:is/-
35640 U72:it's/-
31599 U72:it/-
33048 U72:its/-
21330 U72:jackson/-
16092 U72:jam/-
25857 U72:jamj/-
15606 U72:jamjohnson/accountId
20142 U72:jenwilson/accountId
16677 U72:joh/-
16236 U72:johnson/-
18099 U72:johwilliams/accountId
19422 U72:jpshep.martinez/-
11781 U72:known/-
29925 U72:lee/-
20718 U72:linda.lee/-
29781 U72:linda/-
41679 U72:locked/-
36279 U72:logged/-
10278 U72:login/-
45333 U72:longer/-
7101 U72:lopez/-
8928 U72:lost/-
13995 U72:many/-
20862 U72:mark.moore/-
19134 U72:maryroddiguez/accountId
19998 U72:matgonzalez/accountId
5535 U72:me/-
10746 U72:michael/-
17955 U72:micheal.smith/-
4392 U72:micheal/-
3492 U72:my/-
3780 U72:name/-
9486 U72:need/-
7632 U72:nguyen/-
30672 U72:no/-
26685 U72:not/-
35955 U72:now/-
26064 U72:ohn/-
30384 U72:ok/-
30528 U72:okay/-
22725 U72:oqei/-
2295 U72:password/-
20574 U72:patriciataylor/accountId
17811 U72:paul.pogba/-
25245 U72:paul/-
17667 U72:paulpogba/-
33516 U72:phone/-
5004 U72:please/-
25389 U72:pogba/-
40005 U72:remember/-
1845 U72:reset/-
19566 U72:richarddavis/accountId
18459 U72:robert/-
18261 U72:robertbrown/accountId
28476 U72:ronaldo/-
41139 U72:seem/-
35271 U72:send/-
42867 U72:sign/-
4698 U72:smith/-
33192 U72:sms/-
26262 U72:son/-
36711 U72:still/-
26892 U72:sure/-
8037 U72:thanh/-
32535 U72:this/-
19854 U72:thomas.lopez/-
6957 U72:thomas/-
14274 U72:times/-
1449 U72:to/-
13707 U72:today/-
12987 U72:tried/-
44217 U72:trouble/-
8505 U72:trung/-
13473 U72:ttx/-
31455 U72:unlock/-
34380 U72:use/-
15147 U72:user/-
35001 U72:using/-
1017 U72:want/-
12069 U72:what/-
18990 U72:williamgarcia/accountId
16821 U72:williams/-
12564 U72:with/-
30240 U72:yes/-
43353 U72:you/-
9657 U72:your/-
2304 U73:./.
39105 U73:1789234081731234897/-
2853 U73:_B+1/_B+1
24219 U73:ab/-
22158 U73:abcd/-
21978 U73:abcdef/-
45342 U73:able/-
26901 U73:about/-
42039 U73:access/-
23265 U73:account/-
42462 U73:and/-
41319 U73:be/-
23778 U73:beck/-
18468 U73:brown/-
14283 U73:but/-
33525 U73:call/-
9999 U73:can't/-
36981 U73:cannot/-
24390 U73:cd/-
28953 U73:chaan/-
27540 U73:check/-
38844 U73:code/-
6057 U73:daniel/-
23634 U73:david/-
21825 U73:davidbeck/-
29097 U73:deson/-
31842 U73:do/-
11385 U73:don't/-
7641 U73:duy/-
24597 U73:ef/-
22329 U73:efghj/-
34677 U73:email/-
27918 U73:for/-
39519 U73:forget/-
40212 U73:forgets/-
40680 U73:forgot/-
12078 U73:happened/-
43938 U73:have/-
44667 U73:having/-
5013 U73:help/-
6246 U73:hernandez/-
8739 U73:i/-
15156 U73:id/-
36288 U73:in/-
3789 U73:is/-
31464 U73:it/-
32976 U73:its/-
21195 U73:jackson/-
15957 U73:jam/-
25695 U73:jamj/-
15390 U73:jamjohnson/accountId
16542 U73:joh/-
16101 U73:johnson/-
11556 U73:known/-
29790 U73:lee/-
41526 U73:locked/-
36144 U73:logged/-
10143 U73:login/-
45189 U73:longer/-
6966 U73:lopez/-
8847 U73:lost/-
13716 U73:many/-
5292 U73:me/-
10602 U73:michael/-
4095 U73:micheal/-
3267 U73:my/-
3501 U73:name/-
9306 U73:need/-
7470 U73:nguyen/-
45054 U73:no/-
26523 U73:not/-
35820 U73:now/-
25866 U73:ohn/-
35649 U73:ok/-
22536 U73:oqei/-
1854 U73:password/-
23175 U73:paul.pogba/-
25110 U73:paul/-
23022 U73:paulpogba/-
34857 U73:phone/-
4707 U73:please/-
25254 U73:pogba/-
39933 U73:remember/-
1458 U73:reset/-
28404 U73:ronaldo/-
41031 U73:seem/-
42723 U73:sign/-
4401 U73:smith/-
34389 U73:sms/-
26073 U73:son/-
36639 U73:still/-
26694 U73:sure/-
7848 U73:thanh/-
32454 U73:this/-
6822 U73:thomas/-
14004 U73:times/-
1026 U73:to/-
13482 U73:today/-
12906 U73:tried/-
44082 U73:trouble/-
8424 U73:trung/-
13284 U73:ttx/-
31320 U73:unlock/-
34245 U73:use/-
14967 U73:user/-
450 U73:want/-
11790 U73:what/-
16686 U73:williams/-
12357 U73:with/-
43218 U73:you/-
9495 U73:your/-
1863 U74:./.
38961 U74:1789234081731234897/-
2313 U74:_B+1/_B+1
2862 U74:_B+2/_B+2
24120 U74:ab/-
22059 U74:abcd/-
21906 U74:abcdef/-
45198 U74:able/-
26703 U74:about/-
43650 U74:access/-
27135 U74:account/-
42390 U74:and/-
41148 U74:be/-
23643 U74:beck/-
14013 U74:but/-
34866 U74:call/-
14535 U74:can't/-
36909 U74:cannot/-
24228 U74:cd/-
28854 U74:chaan/-
27441 U74:check/-
5931 U74:daniel/-
23535 U74:david/-
21753 U74:davidbeck/-
28962 U74:deson/-
32670 U74:do/-
32769 U74:don't/-
7479 U74:duy/-
24399 U74:ef/-
22167 U74:efghj/-
34605 U74:email/-
27765 U74:for/-
40599 U74:forgot/-
11799 U74:happened/-
44586 U74:having/-
4716 U74:help/-
6066 U74:hernandez/-
9045 U74:i/-
14976 U74:id/-
36153 U74:in/-
3510 U74:is/-
31329 U74:it/-
32904 U74:its/-
15858 U74:jam/-
25596 U74:jamj/-
15165 U74:jamjohnson/accountId
16443 U74:joh/-
15966 U74:johnson/-
11394 U74:known/-
41328 U74:locked/-
10008 U74:login/-
45063 U74:longer/-
6831 U74:lopez/-
8748 U74:lost/-
13491 U74:many/-
5022 U74:me/-
3798 U74:micheal/-
5544 U74:my/-
3276 U74:name/-
9180 U74:need/-
7371 U74:nguyen/-
31851 U74:not/-
35658 U74:now/-
25704 U74:ohn/-
22338 U74:oqei/-
1467 U74:password/-
23103 U74:paul.pogba/-
25011 U74:paul/-
22950 U74:paulpogba/-
34758 U74:phone/-
4410 U74:please/-
25119 U74:pogba/-
39861 U74:remember/-
1035 U74:reset/-
28323 U74:ronaldo/-
40959 U74:seem/-
42579 U74:sign/-
4104 U74:smith/-
34254 U74:sms/-
25875 U74:son/-
26532 U74:sure/-
7650 U74:thanh/-
32364 U74:this/-
6723 U74:thomas/-
13725 U74:times/-
459 U74:to/-
13293 U74:today/-
43947 U74:trouble/-
8343 U74:trung/-
13113 U74:ttx/-
31212 U74:unlock/-
34146 U74:use/-
14868 U74:user/-
31131 U74:want/-
11565 U74:what/-
16551 U74:williams/-
12087 U74:with/-
9315 U74:your/-
1476 U90:-
1044 U90:_B-1
468 U90:_B-2
1053 U91:-
477 U91:_B-1
486 U92:-
2871 U92:.
495 U93:-
2322 U93:.
2880 U93:_B+1
504 U94:-
1872 U94:.
2331 U94:_B+1
2889 U94:_B+2
1485 U95:-/-
1062 U95:_B-1/-
513 U95:_B-2/_B-1
1071 U96:-/-
2898 U96:-/.
522 U96:_B-1/-
44964 U96:_B-1/.
531 U97:-/-
2340 U97:-/.
2907 U97:./_B+1
540 U98:-/-
1881 U98:-/.
2349 U98:./_B+1
2916 U98:_B+1/_B+2

0.0354531236883917
-0.0097134337437175
0.0064949599049189
0.0271785150368954
-0.0022186470778645
-0.0727030647361443
-0.0258638753276712
-0.0129580209783585
0.0543304432335576
0.0354531236883917
-0.0097134337437175
0.0064949599049189
0.0271785150368954
-0.0022186470778645
-0.0727030647361443
-0.0258638753276712
-0.0129580209783585
0.0543304432335576
-0.0116805523437658
-0.1415001904296478
-0.1421110482241948
-0.0369378398786488
-0.0158444239217480
-0.0140741956320003
-0.0036852689102531
0.4651321725159238
-0.0992986531756636
-0.0048978154694298
-0.1082632539714433
0.2839490680396488
-0.0213953929332450
-0.0132924987157210
-0.0132236181001762
-0.0025249800807884
-0.0875359186907766
-0.0328155900780668
-0.0062779413060060
0.0581634784337344
0.1015568562103014
-0.0252356584287128
-0.0108638038289359
-0.0249453086754333
-0.0027868130399549
-0.0437521788628019
-0.0458586305021832
0.0354531236883917
-0.0097134337437175
0.0064949599049189
0.0271785150368954
-0.0022186470778645
-0.0727030647361443
-0.0258638753276712
-0.0129580209783585
0.0543304432335576
-0.0112208794151113
-0.1017692338209285
-0.1388631171106091
-0.0355563728820922
-0.0143145783896214
-0.0073572483267780
-0.0028383899524588
0.4067116187236829
-0.0947917988260822
-0.0044098255331995
-0.0166587263520774
-0.1145181668913280
-0.0135317864638643
-0.0057847990467128
-0.0028178376781556
-0.0011373644004160
0.1824991715454619
-0.0236406651797045
-0.0046608546072359
-0.0878225822205337
0.1473901568463733
-0.0171191769897092
-0.0074459110224315
-0.0101985454045867
-0.0018167622891976
0.0079238308612467
-0.0262501551739259
0.0354531236883917
-0.0097134337437175
0.0064949599049189
0.0271785150368954
-0.0022186470778645
-0.0727030647361443
-0.0258638753276712
-0.0129580209783585
0.0543304432335576
0.0354531236883917
-0.0097134337437175
0.0064949599049189
0.0271785150368954
-0.0022186470778645
-0.0727030647361443
-0.0258638753276712
-0.0129580209783585
0.0543304432335576
-0.0575957257948819
0.0621348642836383
0.0087436530427004
0.0226322522844428
0.0096026567352534
-0.0956408326070008
-0.1313820839341651
0.2187645507205529
-0.0372593347306112
-0.1154671388038342
0.0572480785459514
-0.0030816039684234
0.0197560862138666
-0.0155916682665981
-0.0120822450005190
-0.0782565687333520
0.1606979414040674
-0.0132228813912105
-0.0806290262453356
0.0727478836118003
0.0124386597842869
-0.0796490484131932
-0.0714484793336017
0.0745116465426305
-0.0521067176981645
0.1008824955486937
0.0232525862028629
0.0354531236883917
-0.0097134337437175
0.0064949599049189
0.0271785150368954
-0.0022186470778645
-0.0727030647361443
-0.0258638753276712
-0.0129580209783585
0.0543304432335576
0.0412628946239795
-0.0003854395925553
0.0159603967383229
0.0550259774227592
0.0070191523108608
-0.0709192498806812
-0.0307391277023337
0.0130558740372823
-0.0302804779576263
-0.1151551638763714
0.0798046316936742
0.0016534458744744
0.0213316588317984
-0.0130107074033697
-0.0541561486024074
-0.0773236131761502
0.2091850501386524
-0.0523291534803607
-0.0781180740060658
0.0885669360894503
0.0190185882840612
-0.0753987635293968
-0.0679995259403542
0.0274231056104855
-0.0510898393853051
0.1370324384366436
0.0005651344404559
0.0354531236883917
-0.0097134337437175
0.0064949599049189
0.0271785150368954
-0.0022186470778645
-0.0727030647361443
-0.0258638753276712
-0.0129580209783585
0.0543304432335576
0.0354531236883917
-0.0097134337437175
0.0064949599049189
0.0271785150368954
-0.0022186470778645
-0.0727030647361443
-0.0258638753276712
-0.0129580209783585
0.0543304432335576
-0.0116805523437658
-0.1415001904296478
-0.1421110482241948
-0.0369378398786488
-0.0158444239217480
-0.0140741956320003
-0.0036852689102531
0.4651321725159238
-0.0992986531756636
-0.0048978154694298
-0.1082632539714433
0.2839490680396488
-0.0213953929332450
-0.0132924987157210
-0.0132236181001762
-0.0025249800807884
-0.0875359186907766
-0.0328155900780668
-0.0062779413060060
0.0581634784337344
0.1015568562103014
-0.0252356584287128
-0.0108638038289359
-0.0249453086754333
-0.0027868130399549
-0.0437521788628019
-0.0458586305021832
0.0354531236883917
-0.0097134337437175
0.0064949599049189
0.0271785150368954
-0.0022186470778645
-0.0727030647361443
-0.0258638753276712
-0.0129580209783585
0.0543304432335576
0.0354531236883917
-0.0097134337437175
0.0064949599049189
0.0271785150368954
-0.0022186470778645
-0.0727030647361443
-0.0258638753276712
-0.0129580209783585
0.0543304432335576
-0.1834326300302770
0.0219751511963656
-0.0002404121682021
0.0037891523301017
0.0004672064128414
-0.0094508508758553
-0.1341067465103912
0.1237462698295903
0.1772528598157671
-0.1206903184049454
0.0372761792034500
-0.0140531812656831
-0.0075352138516197
